1322102 100
</s> -0.005000 0.000808 0.003638 0.000410 0.002124 0.002015 -0.001825 -0.001108 -0.003076 -0.002051 -0.003326 0.003929 -0.000806 0.003996 0.000558 0.001504 -0.002367 -0.004384 0.004541 -0.001188 -0.001521 -0.002627 -0.001900 -0.003926 0.004988 0.004678 -0.000625 -0.001125 -0.001720 -0.002907 -0.001105 -0.002566 -0.001682 -0.003826 0.003365 0.000719 0.000427 -0.002245 0.000239 0.003753 -0.003598 -0.001319 -0.002657 0.002487 -0.002148 -0.000108 0.003750 0.003140 -0.004854 0.001021 0.003136 -0.000727 -0.000930 0.002497 0.000129 -0.000833 0.003359 -0.002031 0.000257 0.004480 0.002578 0.002904 -0.003115 0.002615 -0.002702 0.002781 -0.000260 0.002021 0.004434 -0.002856 0.002546 -0.001622 0.003379 0.000856 0.004776 0.000801 -0.002553 0.003271 0.001095 0.000256 0.001501 -0.003229 0.000509 0.002041 -0.003327 0.000995 0.001510 0.000214 0.004295 0.004984 0.003664 -0.000588 -0.000008 -0.000228 -0.001355 -0.002556 -0.001701 -0.001783 0.003271 -0.000521 
computer 22 7 8 19 15 10 6 17 20 19
book 2 7 11 8 9 4 7 2 9 8
apple 11 8 19 17 13 16 17 11 8 20
human 9 8 3 5 1 5 2 4 7 1
tree 7 4 5 11 8 2 11 8 15 13
boyish 11 13 7 8 10 4 11 7 12 8
code 8 6 1 0 3 6 2 7 8 4
