430 10
</s> -0.049999 0.018116 0.024076 0.007706 -0.047960 -0.025904 0.030378 -0.008132 -0.049842 -0.016127 
the -0.155182 -0.105337 0.035491 0.107348 0.408421 0.025139 -0.260004 0.169927 0.142029 -0.109184 
and -0.095075 -0.129250 -0.021702 0.130115 0.412319 -0.043556 -0.177918 0.204836 0.127629 -0.009777 
to -0.079855 0.004315 -0.042918 0.007256 0.231837 -0.022387 -0.131079 0.071088 0.098844 -0.077902 
a -0.036223 -0.021997 -0.040992 0.044849 0.172510 0.005060 -0.057226 0.052385 0.078538 -0.020609 
that -0.059580 -0.069140 -0.046528 0.010326 0.096901 0.021664 -0.052608 0.024686 0.002401 -0.045084 
i -0.070658 0.033566 0.048012 0.014377 0.077345 -0.015239 -0.089860 0.057373 0.063665 -0.016484 
they 0.015836 -0.061458 -0.008327 0.003398 0.046778 0.015266 0.029502 0.025130 -0.003396 -0.017970 
as 0.013121 -0.021759 -0.022812 0.009573 0.007685 0.034592 -0.055376 0.002963 0.015341 0.002382 
ass 0.000382 -0.020696 0.043075 0.017540 0.103640 -0.049133 -0.082107 0.050013 0.084014 -0.036307 
in -0.022762 -0.002553 0.033180 0.052536 0.051943 0.045808 -0.024096 -0.003105 0.019780 -0.010913 
was -0.040910 -0.001537 -0.032674 -0.003760 0.084623 0.004524 -0.110058 0.015956 0.029663 -0.052268 
of 0.027240 0.013907 -0.034852 0.000071 0.037133 0.047503 -0.027029 0.055689 0.060326 -0.030167 
he -0.054923 -0.002341 -0.035787 -0.004465 0.075934 -0.018351 0.006192 -0.036420 0.015504 0.045902 
with -0.063169 -0.047116 -0.020408 0.044468 0.075096 0.030655 -0.022061 -0.011049 0.008447 -0.054584 
said -0.013922 -0.048666 0.004922 -0.032749 0.024802 -0.029683 -0.021433 0.034253 0.034083 -0.010490 
so 0.004872 0.042736 -0.006733 0.004794 0.041183 -0.003086 -0.060497 -0.013995 0.056893 0.030574 
his -0.061356 -0.038135 0.004599 0.036343 0.071284 -0.035014 -0.000725 0.023112 0.062597 -0.030446 
all -0.027071 -0.020530 -0.012522 -0.011385 0.019582 0.034713 -0.015481 -0.017327 0.015711 -0.001066 
on -0.102708 -0.035215 -0.018247 0.096157 0.167137 0.014184 -0.063749 0.079105 0.061131 -0.045835 
out -0.021348 -0.000925 -0.016147 0.065878 0.102253 -0.048608 -0.055427 -0.011224 0.026196 0.032842 
there 0.009863 -0.041333 0.008022 0.055018 0.072661 -0.046080 -0.059658 0.021545 -0.034402 0.023188 
dog -0.032065 -0.020286 -0.009211 0.056969 0.137545 0.024077 -0.071847 0.086024 0.013769 -0.034375 
you 0.029762 0.040663 -0.034403 -0.004614 0.021713 -0.033531 -0.043263 0.034184 0.040787 0.022775 
is 0.029110 -0.015610 0.016475 0.035154 0.020638 -0.048787 0.031407 -0.037740 -0.009643 0.017560 
had -0.002103 0.030368 0.048150 -0.027983 -0.032831 -0.026096 -0.039956 -0.030747 -0.027828 0.004782 
cat -0.067114 0.033746 0.020565 0.032246 0.113999 0.016741 -0.021005 0.043264 0.060346 -0.008794 
him 0.010996 -0.027780 -0.013530 0.010685 0.036008 -0.030725 -0.034418 0.038957 0.038429 -0.011361 
it -0.022291 -0.044712 0.032695 -0.010655 0.062296 0.012576 0.016162 0.023931 0.050469 -0.024141 
at -0.002535 -0.025117 0.027989 -0.008628 0.043603 -0.019984 -0.036408 0.045509 0.022367 0.040461 
be 0.030900 0.026196 0.027556 0.013477 0.001071 -0.024169 -0.064545 0.059104 0.031425 -0.012356 
cock -0.011758 0.015902 -0.014089 0.033064 0.091644 -0.022239 -0.077536 0.079861 0.017536 -0.044366 
who -0.024017 -0.026477 -0.048052 0.025977 -0.019758 -0.047600 0.046861 0.042235 -0.014099 0.001453 
what -0.052070 0.022837 -0.001384 0.017509 -0.010983 0.047191 0.010726 -0.010215 0.002003 0.001137 
then 0.028572 0.021102 0.016015 0.048626 0.020965 -0.024722 -0.032486 0.004183 0.006468 0.020498 
but -0.019811 -0.003336 0.015386 0.035343 0.048778 0.015378 0.021371 0.048884 0.037607 -0.025872 
for 0.002911 -0.031054 0.013327 0.014630 0.060624 -0.027826 -0.018494 0.056111 0.054535 -0.024358 
my 0.019755 0.017513 0.031928 -0.033722 -0.031416 0.041867 -0.057316 0.010619 -0.028010 0.011218 
up 0.022946 -0.057489 -0.014965 -0.017472 0.048526 -0.044255 -0.074744 0.050591 0.035522 -0.042966 
by -0.015774 -0.032360 -0.013213 0.006181 -0.016756 0.028975 -0.048627 -0.044814 0.054921 -0.000560 
good -0.031020 -0.038705 -0.010281 -0.023791 0.030735 -0.021498 -0.012429 0.001441 -0.040556 0.039184 
bremen 0.044260 0.008699 -0.017382 0.009127 0.013305 0.013064 -0.062631 0.006620 -0.003265 -0.036443 
get 0.000778 -0.059719 0.015880 -0.000938 0.054086 -0.015009 -0.081533 0.048730 0.042506 0.031184 
went 0.017949 -0.037571 -0.038353 0.023340 0.063538 -0.032740 0.030455 -0.009881 -0.003993 0.029804 
them 0.009251 0.006654 -0.022900 -0.038273 0.005629 0.022199 -0.020554 -0.002225 0.003532 0.039369 
when -0.058499 -0.017017 0.014378 0.046223 0.055052 -0.027762 -0.020592 0.021596 -0.011597 0.016214 
robbers 0.002539 -0.053186 0.032913 0.051388 0.075437 0.002922 0.018172 0.015191 0.007785 0.004919 
now 0.030134 0.015703 -0.016542 -0.010133 0.064555 -0.047448 -0.032555 -0.013960 0.041705 0.004041 
are -0.040123 -0.020456 -0.038267 -0.022561 0.092690 -0.023338 -0.081417 0.061442 0.036703 -0.023205 
me -0.009948 0.037512 0.008463 0.026113 0.043213 -0.003580 0.017860 -0.046913 0.001793 -0.037610 
light 0.017980 -0.045678 -0.050641 0.026519 0.060979 0.045097 -0.006321 -0.001028 -0.032152 0.002962 
have -0.014382 0.043589 0.041243 0.000916 0.052363 0.045257 -0.052929 0.039672 -0.003246 -0.012621 
off -0.029507 -0.048950 -0.012279 0.014633 0.048765 0.008532 -0.019494 0.053843 -0.021281 -0.028678 
long -0.023027 -0.043534 0.001429 0.007183 0.015733 0.038354 -0.022685 -0.007719 -0.012785 0.045088 
am -0.021758 0.007372 -0.015930 0.003163 0.045869 -0.016738 -0.024296 -0.038571 -0.006033 0.033574 
house -0.040149 0.020850 -0.024925 0.017307 0.013866 0.035249 -0.041838 -0.039312 0.009816 -0.022106 
do -0.011861 0.039407 -0.023271 0.049359 0.039881 -0.052135 -0.029044 0.048366 -0.019435 0.009973 
go 0.028767 -0.022400 0.030077 0.013355 0.018406 -0.035304 -0.008374 0.000866 -0.002614 -0.017455 
not 0.035859 -0.016080 -0.038534 -0.020278 0.045464 -0.021084 0.043460 0.004275 -0.019965 0.022364 
well -0.043268 0.027451 0.014677 -0.046809 -0.010168 -0.027613 0.011655 -0.009933 0.029300 0.049724 
town 0.038268 0.001643 -0.046664 0.012665 0.025633 -0.000683 -0.033589 -0.015050 0.034528 0.030586 
last -0.009932 0.013406 -0.005330 -0.004861 0.064511 0.032399 -0.023420 0.032465 0.012221 0.006879 
found 0.000660 0.016211 -0.012834 -0.046061 0.007491 -0.028606 0.017341 -0.048194 -0.002677 0.049485 
into -0.012462 0.019412 -0.033155 -0.035919 -0.033622 0.004128 -0.019523 0.001088 -0.016207 0.030030 
ran 0.048424 0.024818 0.025436 0.010722 0.009202 -0.031429 -0.023615 -0.018632 0.048557 -0.031307 
made -0.003423 -0.043264 0.017212 -0.006622 0.004704 -0.033170 0.036480 -0.008016 -0.037597 0.014733 
would -0.031008 -0.031748 -0.050317 0.015382 0.070468 0.012327 -0.063977 0.038374 -0.021192 0.029457 
we -0.059136 -0.035990 0.026317 0.033725 0.043943 0.034491 -0.049581 0.018549 -0.019012 0.020363 
together 0.038777 0.002741 0.005624 -0.009176 -0.012953 -0.001605 -0.007546 0.008184 -0.029226 -0.004246 
began -0.058787 0.006613 -0.025045 0.000828 0.045148 -0.023947 -0.069775 -0.001392 -0.004444 -0.031278 
four -0.007237 0.008802 -0.010568 -0.007155 -0.025986 -0.037841 0.003030 0.015066 0.049899 0.024611 
thought -0.012808 -0.018483 -0.016742 -0.037582 0.020263 -0.012765 -0.027789 0.039117 0.007208 0.043119 
can -0.026260 -0.027963 0.003069 0.010983 -0.029986 -0.030850 -0.030222 -0.008088 0.032470 0.008452 
road 0.038338 -0.030287 0.024228 -0.004705 0.013557 0.021002 -0.040576 -0.016003 0.044171 -0.037300 
no 0.003177 0.015264 0.033719 -0.039395 0.017207 -0.042517 0.006897 -0.033991 -0.021434 -0.044415 
one -0.006660 -0.036478 -0.026682 -0.015234 0.025154 -0.045894 0.012187 0.040844 0.042234 0.000449 
yard 0.041336 0.022465 -0.003337 0.020718 0.029249 -0.012824 0.017357 0.050658 -0.030882 0.003408 
musician -0.046634 -0.035528 -0.013996 0.005835 0.014774 -0.026906 0.022263 -0.039432 -0.027940 0.044661 
going 0.022508 -0.043737 -0.045249 0.038033 0.053601 -0.021002 0.020566 -0.022402 0.027493 -0.041941 
us 0.020012 0.014398 -0.044763 0.007180 -0.000282 0.004644 -0.038314 -0.042126 0.040399 0.007415 
master 0.031892 -0.037653 -0.029527 0.050119 0.031487 -0.011264 -0.013157 0.008890 0.034825 0.043375 
day -0.041961 0.041793 0.006192 -0.041313 -0.038043 -0.015629 0.040155 0.042048 0.038669 -0.046388 
their -0.047027 0.000189 0.033120 -0.004367 -0.046696 0.036132 -0.032517 0.009098 -0.040285 -0.027787 
cried 0.018846 0.012105 -0.007745 -0.038987 -0.044080 -0.021072 -0.030335 -0.040660 -0.006834 0.031241 
will 0.031531 0.038099 0.034002 0.052329 0.053634 0.041945 -0.045301 0.034362 0.047951 -0.029464 
old 0.009746 -0.045567 -0.019784 0.007849 -0.020290 -0.017520 -0.042497 0.041104 0.030254 0.019733 
down 0.022255 0.004615 -0.030654 0.022482 0.037467 0.025589 0.029143 0.053267 0.031338 -0.010704 
become 0.017524 0.026154 -0.015419 -0.036280 -0.015615 0.013216 -0.055292 0.026135 -0.023510 -0.003772 
from 0.049946 -0.000342 0.043411 -0.002502 -0.021341 0.029383 -0.022323 -0.029200 -0.016284 0.047878 
better 0.032960 -0.045048 0.009386 -0.041816 0.032514 0.041477 0.003958 0.035492 0.013477 -0.014970 
might -0.034614 -0.007578 -0.014735 -0.000536 0.000624 0.000454 -0.007842 -0.027896 0.020066 -0.001906 
were -0.022673 -0.000217 -0.004526 0.043536 0.007954 0.027568 -0.022187 0.054003 0.040686 -0.024464 
place -0.027876 0.018222 0.010390 0.005453 0.084206 0.030250 0.019110 0.034508 -0.014107 -0.014975 
door 0.001327 -0.043464 0.044445 0.035851 0.042306 -0.019247 -0.014137 -0.015349 0.018219 0.035697 
run 0.008802 -0.007995 -0.008393 0.049684 0.042040 0.007749 -0.001492 0.027364 0.010277 -0.036783 
came 0.033863 0.045047 -0.045284 0.005779 -0.022664 -0.017146 -0.034325 -0.025384 -0.005635 -0.033446 
back -0.017643 -0.008326 -0.005661 -0.030039 0.052985 -0.040595 -0.039109 0.018652 0.060402 0.027661 
could 0.031070 -0.018826 0.008103 0.037579 0.029701 -0.044194 -0.003564 0.009410 -0.027074 0.023467 
see -0.024768 -0.006621 0.024409 -0.026234 0.004901 0.019951 0.006359 -0.015606 0.021263 0.000525 
away -0.008253 0.023837 0.036261 0.016097 -0.002259 -0.031286 0.035544 -0.041049 0.007276 0.048127 
quite 0.001985 -0.031151 -0.037824 0.017752 -0.022698 -0.006980 -0.021146 0.007847 0.032119 0.038682 
beat -0.003308 -0.033364 -0.038568 0.047528 0.000240 0.001406 0.045446 -0.029174 -0.005608 0.021094 
suit -0.024379 -0.014551 0.015499 -0.003322 0.048321 -0.019277 -0.054314 -0.007239 -0.019649 -0.017671 
companions -0.034955 0.045324 0.030622 -0.036012 0.039097 0.003036 0.029216 0.041956 0.001011 0.048458 
consented -0.036718 0.045142 0.008842 -0.035687 0.047559 0.047904 -0.029059 -0.036266 -0.005417 -0.032220 
themselves 0.003746 -0.028741 0.015531 -0.017696 0.060109 0.011134 0.034877 0.005837 -0.004108 -0.023760 
know 0.028082 -0.041754 0.048545 0.048595 0.046678 -0.050189 -0.028713 -0.038570 0.032350 0.036526 
before -0.050976 -0.039686 -0.049592 0.012164 -0.023401 0.047658 0.038541 -0.010353 -0.012177 -0.025117 
set 0.000369 0.001258 0.041834 0.037452 -0.012692 0.002275 -0.030992 0.009176 -0.030291 0.038139 
through 0.003498 -0.032597 -0.029867 -0.045427 -0.019674 0.014035 0.046136 0.021798 0.037380 0.040041 
table 0.043279 0.001224 0.045789 0.042886 0.035131 0.011047 -0.042672 -0.011175 0.020951 -0.032515 
sitting 0.020954 -0.045477 0.001249 0.049320 0.038317 -0.031150 -0.016969 0.023344 -0.035081 -0.039765 
here 0.005085 0.033426 -0.022204 -0.002559 0.029998 -0.021485 0.001654 -0.038004 0.029284 -0.031325 
fled 0.035600 -0.017630 0.021488 -0.017910 0.010210 -0.031254 -0.054910 0.002974 -0.031113 -0.018930 
little 0.008476 -0.012644 0.008896 0.002504 0.008213 -0.005194 -0.017400 0.050310 -0.010728 -0.012029 
terror 0.034048 -0.018396 0.034322 -0.006833 0.014549 0.042945 -0.017254 0.005901 0.045917 0.032409 
way -0.035203 0.019555 0.033065 0.038657 0.018888 -0.035199 -0.025119 0.042450 0.007287 -0.048939 
crowing -0.032303 0.008884 0.013828 -0.027034 0.037414 -0.011032 -0.002954 0.025440 -0.003153 0.021767 
lying 0.020391 0.035953 0.022762 -0.009430 0.037162 0.036972 0.030055 0.016407 -0.033456 0.007616 
been -0.040039 0.023343 0.014201 0.028365 -0.014817 -0.029664 0.038535 0.022284 0.043969 0.044901 
an -0.041848 0.031678 -0.015145 0.032437 0.030738 0.024953 0.041302 -0.047203 -0.009777 0.038975 
if -0.018473 0.016893 0.005135 0.015085 -0.044686 0.034902 0.046279 0.019808 0.018332 0.021390 
three -0.053191 -0.013399 0.018476 0.026450 -0.026183 0.038519 -0.049546 -0.020138 -0.025810 -0.012634 
should -0.013919 0.039857 -0.017261 0.022194 0.045731 0.032829 0.030085 0.042897 0.011933 0.006566 
taking -0.047256 0.010636 0.036843 -0.018719 0.049011 -0.017727 0.001385 -0.036724 0.048809 -0.026868 
himself 0.020982 -0.013792 -0.005763 -0.033152 -0.042274 0.007093 0.035453 0.029009 0.036618 0.043912 
breath 0.043679 0.003654 0.041910 0.019406 -0.005725 0.010457 -0.038065 -0.037861 0.047882 0.025760 
dunghill -0.026009 -0.004493 -0.022333 0.042094 0.034112 -0.041576 -0.036377 -0.003854 -0.030739 -0.022608 
about -0.031542 -0.010947 0.045437 -0.032731 0.014532 0.030358 0.013468 0.026413 -0.032179 0.027525 
mistress -0.022305 -0.030304 -0.036978 -0.043125 0.060237 -0.039620 -0.045758 0.007112 0.045078 -0.039455 
oh 0.038926 -0.041782 -0.007914 -0.033167 -0.007093 -0.008595 0.020313 -0.048933 -0.011418 -0.011420 
dear 0.015523 -0.007863 0.034007 -0.032527 0.044867 0.024276 0.012206 0.001174 -0.027110 0.007206 
after -0.035840 -0.002389 0.046157 -0.029833 0.035590 -0.018698 0.031824 0.012524 0.034225 -0.013266 
must 0.019077 -0.020170 -0.017512 0.014666 -0.017376 0.014844 0.040424 -0.050776 0.039359 -0.018926 
this -0.009778 -0.039051 0.003792 0.015262 -0.031118 -0.000156 -0.019796 -0.023741 -0.045173 -0.044033 
fast -0.011227 -0.028361 0.003596 0.001748 0.032870 0.000681 0.011094 -0.006606 0.004693 -0.037374 
evening 0.000083 0.030376 0.031515 -0.017976 -0.045878 0.039499 -0.047272 -0.031175 -0.024806 -0.049436 
than -0.036833 0.000522 0.043443 -0.000817 -0.019650 -0.032401 -0.001783 0.046581 -0.016902 -0.008242 
burning 0.008719 0.016882 0.016289 -0.017918 -0.040600 -0.004696 0.045885 0.042776 0.040318 -0.013038 
everything 0.034558 0.036364 -0.025677 -0.040636 0.036143 -0.023199 -0.013284 0.027893 0.029629 -0.034601 
quiet 0.009011 -0.025625 0.044143 0.037044 -0.045651 -0.009110 0.043322 -0.006771 -0.022623 -0.038984 
captain 0.045541 0.021156 0.009672 -0.005488 0.045465 -0.004537 0.004995 -0.000568 -0.020780 -0.006579 
very -0.004461 -0.031580 -0.038650 -0.025896 0.067178 0.043715 0.027855 -0.027898 -0.033250 0.027385 
matter -0.036121 -0.008120 -0.024636 0.016364 0.044269 0.043647 -0.028158 -0.041344 -0.022590 -0.022467 
far 0.048130 -0.040921 0.039439 0.044112 -0.001249 -0.002129 0.024942 0.009815 -0.014179 0.016966 
each -0.009221 -0.003841 -0.030307 0.037992 0.024453 -0.032473 0.007655 0.044215 0.043192 -0.033121 
wood -0.033882 -0.028601 -0.033840 0.016527 0.052709 0.020313 -0.004181 -0.043824 0.028857 0.035146 
where 0.003677 0.027974 0.031718 -0.026293 0.003538 0.001951 -0.038621 0.025633 -0.040923 0.001962 
how -0.028973 -0.002789 0.010834 -0.029491 -0.017062 0.039837 -0.041654 -0.003154 -0.022504 -0.032439 
face -0.001149 -0.049677 0.012324 -0.048393 -0.009629 0.009662 0.027132 0.000910 0.003390 -0.039949 
living -0.005345 -0.022449 0.034308 -0.031524 -0.033865 -0.009178 0.001294 -0.009506 -0.012179 -0.020088 
leg 0.046110 0.016469 0.017165 -0.039092 -0.013794 0.024314 0.004848 -0.042097 0.009884 -0.030549 
whose -0.037626 -0.007811 -0.010406 -0.013054 -0.039135 0.048944 -0.017404 -0.022854 0.018848 -0.031911 
may -0.033359 -0.032543 0.036361 0.005937 -0.027051 -0.015953 -0.050979 -0.011777 -0.003799 -0.046453 
got -0.022351 0.043800 0.017562 0.050780 0.004752 -0.011610 -0.011339 -0.018226 0.004667 -0.004456 
flew 0.012183 -0.037212 -0.037822 -0.024667 0.033467 0.046437 0.024969 -0.012765 0.005842 0.019538 
top -0.045168 0.024662 -0.049660 -0.038429 0.068031 0.033473 0.031768 0.050219 -0.016707 -0.041205 
felt 0.015125 0.044604 0.017607 -0.046996 0.046584 -0.040045 -0.001497 -0.032600 0.027340 -0.032651 
answered 0.010287 -0.032682 0.013409 0.041332 0.036329 -0.035511 0.032197 -0.000481 0.012655 0.026353 
looked 0.026066 0.006195 -0.006967 0.042842 0.005903 -0.038752 0.020222 -0.035007 -0.000922 0.026498 
neck -0.027409 -0.043135 0.007358 0.042306 0.034397 0.028014 -0.039168 -0.041826 0.041742 -0.010348 
her -0.002357 -0.015251 -0.046773 0.004740 0.022496 0.029424 -0.047076 0.045503 0.006710 0.024702 
music -0.016796 -0.020898 -0.014926 -0.028782 0.014194 0.026698 -0.027131 -0.016269 -0.015570 -0.033653 
too -0.030780 0.001911 0.035317 -0.000966 -0.003401 -0.012200 0.031236 -0.010754 -0.018846 -0.014772 
crowed -0.051477 0.030997 -0.012369 0.034381 0.020134 -0.015252 -0.022272 -0.025851 0.029291 0.011560 
burst 0.044119 0.034069 0.016695 0.041402 0.000583 -0.036217 0.029714 0.006618 -0.047730 -0.012839 
room -0.001051 0.026298 0.007842 0.004069 0.000439 -0.025523 0.025823 0.043330 0.024225 -0.048434 
breaking -0.032435 -0.014018 -0.043861 0.002959 0.040305 -0.039967 -0.010863 -0.032197 0.001069 -0.039880 
panes 0.035167 0.026207 0.022995 0.004356 0.051918 -0.048849 -0.032131 0.020039 -0.022249 -0.025506 
glass -0.012320 0.011273 -0.022592 0.029140 -0.035477 -0.038523 -0.033099 0.002142 0.040027 -0.041441 
dreadful -0.038490 -0.048549 -0.005532 -0.013944 0.019153 0.021520 -0.038205 -0.030135 0.030110 0.001010 
sound 0.038839 -0.048769 -0.031998 -0.030750 -0.034964 0.023053 0.033323 -0.011916 0.004704 -0.012751 
some -0.039740 -0.037971 -0.040545 0.001130 0.038919 -0.039595 -0.012402 -0.049780 0.028486 -0.012772 
goblin -0.032602 0.023547 0.039868 -0.012202 0.016111 0.009408 -0.036276 0.025576 -0.024450 -0.029085 
utmost -0.039813 -0.043504 0.049683 0.030459 -0.023615 0.043265 0.045866 -0.018616 0.035669 0.049135 
sat -0.013208 0.003375 0.009317 0.044347 -0.029118 0.007337 -0.030451 -0.042599 0.038344 -0.020801 
free -0.027619 0.043587 -0.046997 -0.048393 0.002467 0.006814 -0.005566 -0.000614 -0.016322 -0.008548 
remains -0.043694 -0.032257 0.019305 -0.013276 0.042759 0.049071 -0.040765 0.030718 0.042419 -0.031508 
meal 0.028337 -0.030239 -0.000869 -0.003834 -0.022443 0.008230 0.000700 0.048026 -0.004157 0.023068 
feasted 0.002118 -0.041822 0.008637 0.035385 -0.052772 -0.039913 -0.016376 -0.036867 0.003513 0.003313 
hungry -0.015347 0.019026 0.039581 0.034788 0.019967 -0.022767 -0.031085 0.012974 0.038078 -0.047628 
month -0.007786 0.018305 -0.006173 -0.022721 0.019510 -0.012817 -0.049073 -0.029008 0.042383 -0.044803 
finished 0.030894 -0.000537 0.018859 0.023391 0.019097 -0.024325 0.000146 0.040425 0.036824 0.010865 
put 0.043167 -0.023822 -0.029684 0.033956 -0.042629 -0.026154 0.048117 0.031120 0.000675 0.004748 
lights 0.015165 0.021157 -0.001828 -0.007704 0.037965 0.031044 0.000244 0.034835 0.040833 -0.004150 
sought -0.028475 -0.012163 -0.022756 0.020848 -0.029704 0.048288 0.002742 -0.025385 -0.022209 0.043487 
sleeping-place 0.017959 -0.029936 0.044712 -0.009413 -0.028326 -0.022534 -0.014661 -0.048973 0.027889 -0.019751 
nature 0.040892 -0.026739 -0.025570 0.002630 0.023260 -0.036589 -0.013537 0.006783 0.027062 0.040518 
habits -0.024987 -0.006390 0.045326 0.002556 0.028562 -0.045534 -0.017316 -0.004190 0.026356 -0.006323 
laid 0.036086 -0.003050 -0.002305 -0.040847 0.045821 0.014167 -0.022335 -0.023526 -0.032371 0.035698 
outside -0.002874 0.036119 -0.037291 -0.009631 0.021546 0.007879 0.011293 0.001255 0.046361 -0.031554 
behind 0.000596 0.047724 0.046144 0.028213 0.024048 0.015565 -0.004822 -0.005353 -0.014733 -0.020049 
hearth 0.010039 -0.005548 0.035716 -0.023521 -0.030477 0.003527 0.049479 0.039939 -0.024042 0.030757 
warm 0.031756 -0.046576 -0.028259 -0.019214 -0.028455 -0.014890 -0.000379 -0.044708 0.019839 0.032342 
ashes 0.025584 0.002377 -0.049299 -0.031503 -0.047954 0.041961 0.037053 -0.012855 0.026920 -0.029469 
settled -0.003776 -0.046836 0.028247 0.025663 0.033916 0.037934 0.043287 0.041376 0.049523 0.010686 
cockloft 0.045137 0.025317 -0.044961 0.012067 0.026083 -0.042246 0.032361 0.002738 0.033290 -0.007968 
tired 0.013274 0.009159 0.046005 0.014535 -0.028138 -0.032841 -0.005423 0.013069 0.010234 -0.012777 
journey -0.006067 0.032289 0.014137 -0.017269 -0.007980 0.035194 -0.046119 -0.046627 0.004127 -0.042781 
soon 0.032470 -0.017042 0.007340 -0.034577 -0.022930 -0.001657 -0.022965 0.047579 -0.036592 -0.027864 
fell 0.018898 -0.026792 -0.036291 -0.031564 0.017685 0.045657 0.020745 -0.043518 0.000267 -0.017473 
asleep 0.020221 0.003653 -0.037096 -0.004480 0.033585 -0.040399 -0.034977 -0.014654 -0.011323 0.024864 
midnight 0.048715 -0.006938 0.032463 0.003318 -0.044951 0.009767 0.045870 0.004155 -0.010099 -0.016455 
drew 0.045441 -0.009642 0.000185 -0.033757 0.012281 -0.037693 0.036634 0.034789 -0.028328 0.033103 
near 0.035127 0.048732 0.015589 0.042577 0.013369 -0.006636 0.011147 -0.005061 -0.016145 -0.031557 
afar -0.021068 0.046691 0.000506 -0.009094 -0.004227 -0.037955 0.043650 0.046111 0.048953 0.021683 
saw 0.003743 0.035053 0.002645 -0.046881 -0.039048 -0.010337 0.031644 -0.004383 0.048585 0.031924 
appeared 0.001443 0.036751 -0.038160 -0.033271 0.022523 -0.036591 0.041860 0.035827 -0.036003 -0.049282 
without -0.039657 -0.018839 0.040306 0.006506 -0.048248 0.016118 0.044919 -0.048144 -0.005716 0.020299 
reason -0.008597 -0.035161 0.016890 0.048543 -0.008716 -0.007841 -0.046499 0.036778 0.031916 -0.041397 
telling 0.007672 0.049760 -0.022241 -0.035974 0.003817 0.017360 -0.011789 0.034709 0.006607 0.040890 
reconnoitre 0.037657 0.013952 -0.011329 -0.016643 -0.039774 -0.024216 -0.032779 -0.049339 0.036083 0.040055 
kitchen -0.005996 -0.003193 -0.010851 -0.019088 0.014035 -0.002659 -0.022712 -0.039532 0.044442 0.009401 
strike 0.022975 0.043191 0.033110 -0.014567 -0.006423 0.006993 -0.021552 -0.014658 0.040821 0.010394 
glowing 0.036926 0.019077 -0.025700 -0.033713 -0.047220 0.028046 -0.021164 -0.049187 -0.022748 -0.006084 
fiery 0.021564 0.031541 -0.037656 -0.017785 -0.025752 -0.031292 0.004372 0.012686 -0.017472 -0.048103 
eyes 0.030072 0.004153 0.022831 -0.012042 -0.017010 -0.026705 -0.026867 0.015745 0.049649 0.028654 
coals 0.020654 0.007281 0.014808 0.014138 0.013184 -0.034562 -0.049803 0.024407 -0.049434 -0.003898 
held 0.024172 -0.034078 -0.029878 0.010231 -0.012423 0.013364 -0.036012 0.013957 -0.040402 -0.020920 
match -0.048091 0.044525 0.034870 -0.046232 0.004464 0.010061 -0.046834 -0.024299 -0.032454 -0.000190 
order 0.038603 0.032133 -0.047744 -0.016490 0.026885 -0.001442 -0.039096 0.009865 0.042248 0.013985 
kindle 0.002499 -0.034459 -0.039444 -0.042179 -0.042106 -0.040284 0.011482 -0.001472 -0.046229 0.043554 
seeing -0.003668 -0.045893 -0.031202 0.004403 0.026272 -0.046898 -0.030311 -0.045804 0.036313 0.007302 
joke -0.043481 -0.015639 -0.013903 -0.000888 -0.045174 -0.015670 -0.034892 -0.035710 0.016970 0.029083 
spitting 0.021342 -0.038998 0.027966 -0.021213 -0.031541 0.028497 -0.034164 0.025358 0.022391 0.000432 
scratching -0.001106 -0.040346 0.021920 -0.024728 -0.002967 0.041702 0.011073 -0.000825 0.019822 -0.043025 
bit 0.016768 0.001877 0.016636 -0.006068 0.033848 -0.008684 0.004932 0.040303 -0.047215 -0.013442 
rushing 0.018205 -0.047759 0.008097 0.015861 -0.016155 0.043129 -0.011774 -0.020448 0.049110 -0.020712 
struck -0.030045 0.006148 -0.014883 -0.017442 -0.013165 -0.023408 0.009490 0.037279 -0.005451 -0.005787 
gave 0.041663 0.035688 -0.034285 -0.049834 0.035380 -0.025454 -0.004711 0.046800 -0.019667 0.039397 
great 0.036588 0.001691 -0.020791 0.047270 0.028671 -0.009292 0.018999 -0.038900 -0.040451 0.043905 
kick 0.039002 0.017452 -0.033089 -0.039913 -0.022144 0.030003 0.022995 0.007173 0.036197 0.017490 
hind 0.004395 0.023717 -0.027630 -0.018162 0.031530 -0.035806 -0.019411 -0.036186 -0.040914 -0.047594 
foot -0.036081 0.019846 0.017135 0.045552 0.020333 0.008676 -0.035774 0.021889 -0.041534 -0.015401 
wakened -0.004965 -0.047720 -0.009523 -0.015073 0.039789 0.009278 0.039814 -0.004961 0.038835 -0.049991 
noise 0.048936 -0.030802 0.038651 -0.033459 0.037038 0.031185 -0.039269 0.027515 -0.003333 0.004971 
brisk -0.028447 0.017099 0.007936 0.048549 -0.008718 0.018046 0.013057 0.037254 -0.020114 0.042897 
cock-a-doodle-doo -0.005398 -0.015413 -0.015815 -0.038356 -0.031802 0.001644 0.046844 0.023158 0.047805 -0.033455 
robber -0.018427 -0.043371 -0.006276 -0.045812 0.005444 0.032327 0.010041 0.020628 -0.040787 0.027127 
gruesome 0.001466 -0.035929 0.019964 0.046096 0.003093 0.015887 -0.036805 -0.008917 -0.000233 0.027345 
witch 0.038150 0.042112 0.033428 0.028528 -0.014903 0.005134 0.012879 0.032173 -0.017099 -0.017256 
nails -0.006027 -0.027834 0.029198 -0.027961 0.022529 -0.011654 -0.037196 0.031328 0.017304 -0.014850 
stands -0.003247 -0.011989 0.034907 -0.039854 0.047199 0.025476 0.042717 0.034283 0.022901 0.018145 
man 0.030665 0.008602 -0.021778 -0.024544 -0.026467 -0.030555 0.039267 0.002439 -0.009825 -0.033938 
stabbed -0.013484 -0.033269 -0.023534 -0.006249 -0.035915 -0.037222 -0.047015 -0.009870 -0.032240 -0.002498 
knife -0.028848 -0.047366 -0.033004 -0.025699 -0.026225 0.005962 0.010693 0.008710 0.044399 0.012987 
lies 0.049912 0.019113 0.003353 -0.021741 0.030156 0.007230 0.018466 -0.005829 0.012528 -0.034475 
black -0.034640 0.026234 -0.042682 0.004923 0.032230 0.020177 -0.046117 0.023628 -0.042622 -0.022085 
spectre 0.013049 0.021370 0.049874 0.038230 -0.009898 0.010756 0.010078 0.023953 0.046984 0.015818 
wooden 0.011635 -0.042268 0.025017 0.035165 0.036789 -0.023602 -0.026713 -0.022857 -0.034622 0.049182 
club -0.049940 0.008981 -0.037778 0.017047 0.010237 0.027010 0.030694 0.045941 0.002691 -0.003502 
above -0.049912 0.042550 -0.033540 0.005761 -0.046134 -0.038253 -0.033273 0.024134 0.027868 0.046069 
upon 0.027335 0.042970 -0.007489 0.025783 0.025513 -0.011670 -0.020089 0.018664 -0.030374 -0.017445 
roof 0.022733 -0.006955 0.027320 0.040200 -0.001229 -0.044882 -0.043169 -0.007450 0.003495 0.001642 
sits -0.018082 0.000597 -0.028643 0.035338 0.047860 -0.037677 -0.033980 -0.008649 0.043641 -0.000171 
justice -0.008228 0.033126 -0.006607 0.025970 -0.014475 -0.045275 -0.001521 0.034453 -0.026219 0.031529 
bring 0.018249 0.041924 -0.046692 -0.026605 0.022988 -0.033520 0.031286 -0.046364 0.032597 0.005155 
rogue 0.018056 0.010164 0.042932 0.049829 -0.033496 0.029398 0.018326 -0.038654 -0.043353 0.035403 
time -0.029474 0.022384 -0.039396 -0.023872 0.037888 -0.015435 -0.000728 0.039021 -0.040715 0.016076 
forward 0.033642 0.001934 -0.023371 -0.012496 -0.018967 -0.021989 -0.035866 0.018456 0.000096 -0.014784 
never 0.020892 -0.000918 -0.001795 -0.020050 0.017758 0.034186 0.002912 -0.008795 0.007161 0.019418 
ventured 0.032871 -0.033858 0.029278 0.024552 -0.034963 -0.027681 0.040739 -0.021233 -0.045552 -0.044002 
musicians -0.040545 0.047612 -0.024248 0.049183 -0.021215 -0.036996 -0.006529 0.036620 0.001904 -0.035236 
stayed -0.041826 0.007436 -0.028608 0.026631 0.040671 0.000814 -0.026947 -0.025084 -0.005177 -0.005135 
person 0.026400 -0.022675 -0.021754 -0.007139 -0.047783 -0.023747 -0.002929 0.020207 -0.005625 -0.004920 
related 0.012957 0.003143 -0.011937 0.014166 0.009171 -0.020076 -0.025125 0.016159 -0.032221 0.003797 
tale -0.028615 0.019856 -0.029188 -0.003620 0.044460 -0.021547 0.031075 -0.007857 -0.041619 0.009604 
still -0.028645 0.016705 0.042853 -0.039753 0.032933 -0.038972 -0.028085 -0.048098 0.011282 0.007973 
once -0.041746 -0.040266 0.026206 -0.031815 0.006822 0.000997 -0.021438 0.011298 0.009265 -0.000552 
carry -0.010926 0.004452 0.012141 0.036242 -0.028890 -0.035975 0.014930 -0.002055 0.002151 -0.018939 
sacks 0.045114 0.011013 0.008021 0.000396 -0.047197 0.047577 -0.029076 -0.017807 -0.012325 0.048472 
mill 0.044717 0.017032 -0.013971 0.043212 0.008741 0.032554 -0.027880 -0.037394 0.016839 -0.010970 
many -0.010584 -0.000585 0.041427 0.040322 0.014933 0.040365 -0.019064 0.001676 -0.012445 0.009066 
year -0.023004 0.007037 -0.030064 -0.020584 -0.034112 0.018976 -0.041113 -0.009536 0.003786 -0.019432 
strength 0.019099 0.008471 -0.038457 0.013297 -0.042833 -0.019356 -0.013457 -0.007286 -0.043494 -0.042397 
fail -0.021551 -0.005561 0.028945 0.047083 -0.019640 -0.027507 -0.049295 -0.001809 0.020430 -0.008347 
less 0.027846 -0.034757 0.019544 0.004544 0.007679 0.016498 0.036956 0.029286 0.003011 0.026027 
capable 0.028705 0.000021 -0.048086 0.033407 -0.012570 -0.033270 0.035778 -0.016272 0.039311 0.020650 
work -0.007113 0.023110 0.024204 -0.044135 -0.028775 -0.029870 -0.030349 0.035778 0.041013 0.024041 
think -0.021817 -0.046873 -0.039249 -0.029904 -0.045231 0.019478 0.018243 -0.044535 0.042424 0.034252 
turning -0.030519 -0.045055 0.038911 0.048179 0.026290 -0.038694 -0.000981 -0.049626 0.002268 0.010519 
guessing -0.049059 0.001668 0.015520 0.027696 -0.041985 -0.041952 -0.025028 -0.009737 -0.014376 0.011844 
something -0.031185 -0.018538 -0.015517 0.037988 -0.021320 -0.046642 0.001407 0.005947 -0.038255 0.024039 
wind 0.047669 -0.047135 -0.011456 -0.045422 0.028099 -0.037167 0.043928 0.010979 0.042271 0.006730 
boded -0.025645 -0.025412 -0.028837 0.001382 -0.013349 -0.031561 -0.039029 0.032188 -0.044374 -0.024020 
engagement 0.031347 -0.039587 -0.016953 -0.012624 -0.018768 -0.027061 -0.022316 -0.007554 0.005267 -0.009789 
gone -0.036793 -0.012951 -0.048481 0.047927 -0.012844 0.034183 0.005223 -0.014294 -0.020212 -0.034906 
hound -0.010976 0.004347 0.040852 -0.029350 0.049624 0.035014 -0.031802 -0.007518 0.051339 0.045308 
side 0.008758 0.008434 0.029057 -0.025184 0.017308 -0.020153 -0.041934 0.029246 -0.025727 0.007197 
panting -0.033093 0.009656 -0.010213 0.011002 0.023737 -0.012548 0.037136 -0.040122 0.028822 -0.008594 
holdfast 0.032351 0.043905 0.022250 0.039426 -0.014456 -0.002812 0.034865 -0.001860 0.049532 -0.023741 
weaker -0.034920 0.026993 0.033022 0.005450 -0.032892 -0.030116 0.008946 -0.002083 -0.018392 0.029760 
every 0.047767 0.001303 0.037854 -0.041121 0.002962 0.016260 -0.051122 -0.002414 0.011484 0.032110 
hunt -0.025226 -0.000762 -0.036308 0.028522 0.008822 0.018729 0.030683 0.007301 0.036979 -0.029232 
killed -0.027362 0.016561 -0.016418 0.027727 0.021234 -0.045851 -0.029383 -0.048948 -0.024618 -0.010127 
escape -0.040384 0.021743 0.044305 0.021172 0.019888 0.025651 -0.049714 -0.041926 -0.028037 -0.023894 
gain -0.029270 -0.007662 -0.013450 -0.044157 0.032481 -0.027206 0.033436 -0.017506 0.027662 -0.041964 
tell 0.012887 -0.000031 -0.014438 0.038941 -0.002358 -0.048579 0.036898 -0.011938 0.045477 -0.001670 
take 0.019786 -0.001033 -0.042162 -0.042832 0.023914 0.037578 0.014107 -0.025952 -0.041339 -0.046821 
play 0.029729 0.020481 0.007707 0.049033 -0.034642 -0.026692 0.015135 0.014135 0.044386 0.049063 
lute 0.019097 0.003308 0.028836 -0.023117 -0.017307 0.021321 -0.049350 0.044865 0.041855 0.031242 
drum 0.025868 -0.023454 0.035259 -0.000594 -0.051560 -0.031917 0.039460 -0.029956 -0.036362 0.004694 
walked 0.016420 0.008881 -0.000333 0.018481 -0.007179 -0.044373 -0.022959 -0.006609 -0.007601 -0.039001 
looking 0.012263 -0.022505 0.032457 0.025574 0.032269 0.038281 -0.041896 -0.044195 0.016219 0.023957 
dismal -0.045144 0.018905 0.014670 0.044940 0.044021 0.014499 -0.025213 0.010660 -0.024846 -0.037580 
wet 0.008313 0.001089 -0.005306 0.020801 0.008501 -0.042911 0.033668 0.009272 -0.003583 0.000400 
days -0.028691 0.044288 -0.013617 0.042761 0.011192 0.007521 -0.010815 0.037225 0.038307 -0.013682 
shaver -0.018214 -0.024631 -0.014801 -0.032466 0.009868 0.043281 -0.001571 0.038338 0.024688 -0.025503 
like 0.019848 -0.007517 -0.021949 0.030889 0.050041 0.042948 0.007930 0.029691 0.001835 0.039700 
cheerful -0.038343 0.010296 0.041028 -0.022565 0.021923 0.037775 -0.000540 0.031656 -0.024248 0.031041 
danger 0.025987 0.027001 0.012921 -0.001787 -0.041415 -0.013999 0.028903 -0.045675 -0.028972 -0.012045 
teeth 0.000429 0.043853 0.024993 0.041274 0.004272 -0.017997 -0.053913 0.029798 -0.000630 -0.012746 
getting 0.003841 0.018946 -0.033481 0.021309 -0.002691 0.003832 -0.028607 -0.040248 0.019465 -0.031848 
blunt 0.007414 0.032890 0.028248 -0.009344 -0.000219 -0.032706 -0.037436 -0.034628 0.034883 -0.029932 
rather -0.016790 0.002571 -0.024211 -0.032677 0.005341 0.046302 0.035870 -0.008391 0.050468 0.047547 
sit 0.020447 -0.027102 0.011674 0.040545 0.009364 -0.033731 0.004374 -0.027482 0.045523 0.043571 
oven -0.035721 -0.035375 0.035639 -0.028103 -0.033208 0.022133 0.030370 -0.041458 -0.006127 0.022984 
purr -0.032864 0.039818 -0.018322 0.004065 0.022828 0.048181 0.048122 -0.018619 0.009104 0.048537 
mice -0.001339 -0.024103 0.010830 -0.013731 0.003691 -0.034435 0.000613 0.027949 -0.001679 0.022286 
wanted 0.035752 0.015014 -0.037044 -0.024423 -0.011951 0.013530 0.016288 0.012727 0.010828 -0.001882 
drown 0.030508 -0.047629 -0.013362 0.030498 0.012008 0.015388 0.008103 -0.026264 0.019418 0.001938 
took 0.004310 0.045937 -0.036947 -0.025956 -0.041473 0.042990 0.013386 0.048078 -0.034981 0.004445 
myself 0.022503 -0.020904 -0.023577 0.016334 0.044444 -0.043053 -0.051387 0.006289 0.016058 0.004592 
advice -0.020555 0.036674 -0.036903 -0.015550 0.029760 0.027309 -0.026474 0.039758 0.020772 0.013912 
scarce -0.038363 -0.021616 -0.029522 0.002535 0.002188 -0.031126 -0.032830 0.006103 -0.019616 -0.044461 
understand 0.002043 0.045254 0.025144 -0.004189 -0.007527 -0.006110 -0.010457 0.026508 0.025797 -0.035220 
serenading -0.019701 0.000250 -0.042985 0.011762 -0.001144 -0.000617 0.045871 0.014050 0.021677 -0.040847 
idea 0.007766 -0.036443 -0.004037 0.017251 -0.029238 -0.037535 -0.031935 -0.027099 0.039365 0.037504 
accordingly 0.001447 -0.007117 0.045592 -0.048305 0.023041 -0.001727 -0.040001 -0.027003 -0.016296 0.033534 
travellers -0.008573 0.019725 -0.026167 0.033007 -0.041097 -0.015558 -0.012089 -0.006536 0.027178 0.048951 
passed -0.025702 -0.006852 -0.029848 -0.011517 0.023228 -0.011569 -0.034013 0.001485 -0.019143 0.015542 
perched -0.013412 -0.040196 0.017752 0.005334 -0.030087 -0.013388 -0.042383 -0.038156 -0.020923 0.002791 
gate -0.010390 0.026271 -0.042568 0.047793 -0.021545 0.012746 -0.018409 0.025165 0.018461 -0.013169 
your -0.009495 -0.040519 0.033769 0.027100 0.054347 0.022087 -0.014623 -0.003593 -0.008732 0.027723 
cries -0.008073 -0.007494 -0.036155 0.032899 0.036428 0.043569 0.008487 0.045899 0.020648 0.019720 
enough -0.017437 -0.018185 -0.039132 0.029325 0.043090 0.028009 -0.013144 0.032656 -0.041478 -0.041239 
pierce -0.028739 -0.022616 0.028986 -0.001559 -0.008871 -0.049291 -0.028747 -0.033138 -0.031111 0.026730 
bone -0.045281 0.024393 0.043180 -0.007639 -0.009510 0.036905 0.007343 0.030411 0.002488 -0.030049 
marrow -0.016559 -0.017647 -0.046031 -0.023801 0.023124 0.000244 -0.017093 0.036235 0.018348 0.033538 
foretold -0.029261 -0.017052 -0.043719 0.022015 0.042643 -0.008087 0.019122 -0.041687 -0.013428 -0.027472 
weather 0.011072 -0.044839 0.032306 -0.025981 0.005800 -0.011401 -0.012613 0.050104 -0.014563 0.041470 
lady-day 0.012398 0.006212 -0.036955 0.018779 0.007553 0.014853 -0.018124 0.036458 -0.006423 -0.035640 
shirts -0.001301 -0.003667 0.030065 -0.008507 -0.002757 0.004072 0.011013 -0.029631 -0.033686 -0.049724 
washed 0.020929 -0.031900 -0.026795 -0.021934 -0.043325 0.012289 0.004815 0.007678 0.006972 0.043988 
dried 0.019132 -0.040497 -0.009691 -0.014862 -0.008455 -0.012315 -0.047019 -0.035613 0.028996 0.003876 
sunday 0.039730 0.044673 0.009244 -0.015701 0.025121 -0.003649 -0.014220 -0.038542 0.036270 0.043075 
morning -0.008310 0.033934 0.014904 0.022735 0.012798 0.042772 -0.011149 0.007648 0.018438 -0.032857 
company 0.040996 -0.004018 -0.044441 0.048917 -0.021759 0.026581 0.005425 -0.019737 -0.005206 0.020003 
coming -0.017456 -0.014131 0.049493 0.028140 0.023100 0.026448 0.012449 -0.035233 0.024239 0.032223 
has -0.005508 0.027235 0.032149 0.043300 0.025643 -0.023811 -0.005528 0.010805 -0.020600 -0.046663 
told 0.000389 -0.036774 -0.008433 -0.044554 0.009690 0.027442 0.042795 0.051088 0.000855 -0.039312 
cook 0.015744 -0.035850 -0.046228 0.047775 -0.010042 -0.041086 -0.028083 0.015851 0.017298 0.022449 
soup -0.006705 -0.043120 -0.037364 -0.048142 -0.008857 0.015862 -0.028757 -0.043869 -0.003887 -0.034930 
wrung 0.010394 -0.033054 0.047417 -0.009689 -0.037802 0.006405 0.000580 0.040083 -0.043301 -0.008228 
while 0.047050 -0.002408 0.036089 -0.034013 -0.006454 0.041419 -0.008415 -0.036811 0.036779 -0.047446 
much -0.036454 -0.010277 0.016974 0.029361 0.032507 -0.019948 0.046129 0.024404 -0.001512 -0.042254 
chanticleer 0.014233 0.038876 0.033126 -0.048327 -0.040859 -0.044666 0.043406 0.037273 -0.015635 -0.004521 
any -0.018302 -0.008927 -0.026908 0.010909 0.008854 -0.036709 -0.011946 0.002119 0.036550 0.044511 
rate 0.002061 -0.010267 0.021130 0.042388 -0.034465 -0.003512 0.027813 -0.007508 0.005233 0.011820 
dying 0.000621 0.013240 0.009412 -0.037335 0.026836 0.022155 0.014712 0.047612 -0.012570 0.029580 
powerful 0.030132 -0.021242 -0.027762 0.007209 0.022674 -0.049129 -0.003132 -0.031324 -0.022707 -0.041181 
voice -0.049910 -0.044798 -0.027475 -0.041500 0.009527 0.024641 -0.033616 0.030116 -0.006983 0.048200 
performing -0.022964 0.032713 -0.049853 0.004187 0.000303 0.011898 -0.019659 0.029171 0.049135 0.047141 
effect 0.012179 0.040365 -0.004844 -0.011661 0.025960 -0.043610 0.024840 0.046725 0.011046 -0.013511 
reached 0.002949 0.041629 -0.008992 -0.001413 0.003893 0.010672 0.041542 -0.034047 0.011849 -0.019783 
towards 0.041321 0.039987 0.042855 -0.011910 0.022313 0.018730 -0.031199 0.005789 0.037710 0.040590 
determined -0.022369 0.027401 -0.047912 -0.008722 0.048094 0.000021 -0.046704 -0.023337 -0.039231 0.028781 
pass 0.045752 -0.034505 0.001010 0.008055 0.026850 0.049630 -0.039148 0.044354 -0.041285 0.049036 
night -0.027438 0.003681 -0.012274 0.047513 0.055383 0.026656 -0.026646 0.033170 0.025468 -0.045189 
lay 0.030239 -0.049438 0.036987 0.023471 0.001230 0.008111 0.014342 -0.002523 -0.030429 0.003343 
under 0.012974 0.025042 0.030053 0.015602 0.036467 0.027491 -0.031617 -0.028539 0.000058 0.035804 
large -0.008153 -0.000888 0.010942 -0.044233 -0.017192 -0.046851 -0.009138 0.002204 0.035287 -0.029097 
tree 0.029818 0.034111 -0.016568 -0.018690 0.007228 -0.019004 0.044580 -0.003419 0.033577 -0.034651 
among -0.049174 -0.023883 0.013373 -0.008435 -0.011747 -0.003283 0.022114 0.027387 -0.028651 -0.010350 
branches -0.035484 0.034258 0.016375 0.027072 0.024642 0.046169 -0.008593 0.018650 -0.014847 -0.022684 
safest 0.017714 0.007301 0.013754 0.009209 0.028518 -0.007927 -0.052827 0.031600 0.014513 0.048858 
sleep 0.018297 -0.012194 -0.025863 0.007406 0.043991 -0.034547 0.010237 0.019133 0.042075 -0.004145 
round -0.007387 0.029649 -0.048346 -0.020931 0.004533 -0.028776 0.014399 0.013880 -0.038228 -0.044298 
points 0.007189 -0.000033 0.048613 -0.035646 0.036398 -0.013652 -0.035583 -0.015903 0.010118 0.013867 
compass 0.022891 0.040053 -0.028664 -0.030035 -0.021672 0.033662 -0.044327 0.011473 -0.040026 -0.028746 
perceived 0.046861 -0.011771 0.014550 -0.011095 0.004909 0.009795 -0.030554 0.054980 0.005755 -0.021299 
distance 0.017512 0.005277 0.007129 0.033602 -0.019782 -0.030682 0.024143 0.022588 0.040717 0.035846 
shining -0.023715 0.023225 -0.011979 -0.021037 -0.041688 0.008263 -0.000073 -0.023607 0.026026 -0.035287 
called 0.022676 0.036260 -0.040241 -0.028684 0.011843 0.031449 -0.010106 0.027821 0.024950 0.030752 
these -0.038594 -0.019510 -0.006370 -0.003776 0.056980 -0.046266 -0.009374 -0.041860 0.009001 -0.025383 
uncomfortable -0.053997 -0.034411 -0.037110 0.019248 0.001351 -0.004992 -0.044766 0.017130 -0.034476 -0.035808 
quarters -0.003534 0.021463 0.008159 0.007012 0.007966 0.026470 0.009008 -0.007336 0.037593 -0.009645 
fancy -0.049580 0.016412 0.001410 -0.035776 0.044258 -0.011529 -0.005198 0.044290 0.035440 -0.004105 
few -0.038586 0.034858 -0.003244 0.001789 -0.014714 -0.006971 -0.043440 -0.024111 0.001616 -0.039989 
bones 0.037001 -0.044638 0.037927 -0.008332 0.020079 -0.017552 0.029199 -0.024220 0.048701 0.042802 
bare 0.028064 0.021534 -0.041210 -0.039597 -0.014829 -0.020407 0.043338 0.014303 0.000369 -0.029784 
direction 0.022540 0.036504 -0.013482 0.002598 0.041555 0.041573 0.005239 0.044620 -0.008122 -0.011455 
grew -0.008365 -0.016419 -0.040658 -0.033915 0.000698 -0.019231 0.017053 0.015655 -0.034605 -0.010774 
larger -0.052877 -0.045283 -0.021195 -0.023974 -0.031430 0.001848 -0.036475 -0.012374 -0.004331 -0.014409 
brighter 0.004990 -0.038247 0.033090 -0.002766 0.045085 0.011770 -0.049363 0.027843 0.042975 -0.022872 
until -0.000750 -0.011933 0.040088 -0.011854 -0.026357 -0.035241 -0.005783 -0.011774 -0.003937 -0.011575 
led -0.044684 -0.041006 0.031518 0.049574 0.046587 -0.025735 -0.013823 0.027750 0.047048 0.024045 
lighted 0.001240 0.016113 0.046237 0.040660 0.043785 0.043729 0.015556 -0.001440 -0.042633 -0.002221 
being -0.015545 0.002965 0.030576 -0.012173 0.045864 0.047506 0.026442 -0.031437 -0.017630 0.028434 
biggest -0.032113 0.029535 0.030023 -0.004263 -0.035839 -0.000169 -0.017284 -0.031777 0.000123 0.007452 
window -0.011188 0.037947 0.034074 0.029009 0.044925 0.040085 -0.024787 -0.030585 -0.038590 -0.023552 
asked 0.012558 0.027450 -0.005108 0.049129 -0.021963 -0.000630 0.041278 0.031109 -0.039093 -0.032115 
splendid 0.010934 0.008160 0.012880 -0.013939 0.044623 -0.051297 -0.036194 0.043093 0.007141 0.021648 
eatables 0.016872 0.035305 0.018567 0.011466 -0.025517 -0.023601 -0.040359 -0.016331 0.031508 0.029465 
drinkables -0.001662 0.032891 0.030867 0.009610 0.048837 0.049511 0.016915 0.035511 -0.027978 -0.001953 
making -0.018679 -0.000119 -0.002922 -0.038751 0.015456 0.041103 0.050305 0.032147 0.022658 0.028478 
comfortable 0.030766 -0.042358 -0.031534 0.002338 -0.040936 -0.048348 0.030479 0.022420 0.032948 -0.036973 
just -0.009595 -0.010068 -0.010409 -0.004811 0.018437 -0.046795 0.012587 0.023830 -0.001376 -0.009092 
yes 0.011746 -0.017174 0.041762 0.028651 0.034417 -0.044934 -0.009242 0.034696 -0.017921 -0.043874 
indeed -0.025510 0.013429 -0.004437 -0.036537 -0.026381 0.039158 -0.014090 -0.017712 0.020594 -0.016412 
wish -0.053497 -0.042566 -0.013925 -0.025046 0.020286 -0.035854 -0.054051 0.034452 -0.024651 -0.036749 
consulted -0.037080 -0.040928 0.001976 -0.035025 0.004063 0.003668 0.008382 0.003421 0.004067 -0.035296 
managed 0.000395 -0.035728 -0.027362 -0.011273 -0.045623 0.044466 0.026106 0.026536 -0.015971 -0.036828 
hit 0.023559 -0.006829 0.038978 -0.008253 -0.003158 -0.019557 0.002216 0.049212 -0.044430 0.042810 
plan -0.036647 0.012341 0.048004 -0.014563 0.039591 -0.021101 0.024796 0.063278 0.035595 0.030903 
forefeet -0.050486 -0.028725 -0.038477 -0.029718 0.000269 -0.014880 -0.044926 0.054652 0.018666 0.010754 
window-sill -0.056621 -0.018275 -0.006694 0.045763 0.058466 -0.043353 -0.072343 0.059390 0.018611 -0.015904 
asss -0.046415 0.041184 0.017375 -0.015635 0.070011 0.044294 -0.002114 0.048722 0.056485 0.035777 
lastly 0.015399 0.007387 -0.022015 0.046095 0.045660 -0.004219 -0.010594 0.030931 0.028689 0.023756 
fly -0.033751 0.009255 -0.009892 0.038856 0.062827 0.015499 -0.032958 0.053684 0.048840 -0.048509 
perch -0.062072 0.030850 0.022110 0.058607 0.069144 -0.007121 -0.075260 0.014144 0.031192 -0.003899 
cats -0.019495 -0.020487 -0.047900 -0.014121 0.009150 0.005700 -0.079778 0.060279 0.015064 0.018474 
head -0.024220 0.025777 -0.021595 -0.007744 0.080778 0.041839 -0.077860 -0.022597 -0.016675 -0.005559 
done -0.007677 0.024173 -0.031966 0.011436 0.007410 0.000731 -0.060442 0.024143 0.031598 0.007522 
given -0.016852 -0.010469 0.029238 0.028258 -0.021189 -0.001316 -0.058946 0.009884 -0.038094 0.018174 
signal -0.039666 -0.042897 -0.023397 0.003184 -0.030666 -0.013810 0.039213 0.035168 -0.045868 -0.038697 
perform -0.027306 -0.000787 0.019490 -0.000169 0.018955 0.016559 -0.022765 -0.019716 -0.027075 0.030757 
brayed 0.029197 -0.003732 -0.008256 -0.011253 0.050883 0.004218 -0.033817 0.012858 -0.035242 0.003041 
barked 0.015015 -0.006748 0.029030 0.040054 -0.014666 -0.007529 -0.056514 0.007005 0.007731 -0.036894 
mewed 0.004478 -0.002409 0.023792 -0.005247 0.021366 -0.043839 -0.019612 0.033013 -0.024299 -0.020069 
