1494772 100
</s> -0.005000 0.001888 -0.004290 0.000798 -0.002888 0.001292 0.003473 0.004826 -0.004645 -0.002970 -0.004981 0.001277 -0.004960 0.000550 -0.001939 -0.003582 0.004296 0.002306 -0.000323 0.003018 -0.004260 -0.004481 0.003020 -0.002341 0.000703 -0.003517 0.001353 0.003095 -0.004217 -0.001780 0.004874 0.002766 0.003384 0.003823 0.004342 -0.004291 -0.004575 -0.002223 0.004366 -0.002881 0.004605 -0.002941 0.001590 0.001551 -0.004859 0.000392 -0.004361 -0.000165 0.000915 0.002913 -0.001355 -0.003515 -0.003165 -0.000050 0.004479 0.003592 0.000231 0.001781 -0.002413 0.000055 -0.003674 0.001729 -0.004619 0.004409 -0.001670 -0.002455 0.002433 -0.004554 0.000386 0.001260 -0.002818 -0.002834 0.001046 0.004870 -0.004839 -0.002319 0.001581 -0.001207 0.004429 0.003611 0.003535 0.001496 -0.000048 0.004525 0.000614 -0.000506 -0.000653 -0.001062 0.002095 0.000126 -0.002862 0.002402 0.003004 0.003533 -0.001255 0.004621 -0.004821 -0.000186 0.000560 -0.004073 
junge 0.08 0.01 0.09 0.00 0.02 0.07 0.08 0.01 0.09 0.08
mensch 0.07 0.07 0.02 0.08 0.07 0.09 0.06 0.04 0.01 0.02
baum 0.011 0.07 0.08 0.02 0.09 0.00 0.03 0.07 0.04 0.08
apfel 0.07 0.02 0.08 0.09 0.08 0.07 0.03 0.06 0.04 0.07
computer 0.02 0.08 0.07 0.09 0.07 0.08 0.06 0.05 0.08 0.01
buch 0.06 0.07 0.011 0.06 0.04 0.08 0.02 0.04 0.02 0.03
code 0.03 0.07 0.01 0.03 0.06 0.02 0.01 0.02 0.03 0.04
