493 10
</s> -0.049999 0.018167 0.041797 -0.040847 0.025513 -0.033729 -0.033274 -0.014176 -0.043750 0.030873 
der -0.041809 0.019101 -0.011912 -0.007268 0.010370 0.033165 -0.054899 0.055989 0.002833 0.005821 
und 0.026030 -0.061603 0.048260 0.026399 0.044745 0.054761 -0.026305 -0.004410 0.014691 0.042293 
die -0.006163 -0.040193 -0.037265 -0.018816 -0.028103 -0.035636 0.036862 -0.028768 0.052053 0.055045 
auf -0.002390 -0.032986 -0.008272 -0.014583 0.014049 0.015703 0.007320 0.007576 -0.043245 -0.031571 
ein -0.027970 0.005029 0.031745 -0.028334 -0.034677 0.004452 0.000476 0.028789 0.018191 0.059215 
den -0.051936 0.010807 0.050477 0.028425 0.040656 0.050186 0.003369 0.043158 0.048329 0.059639 
da 0.017154 0.014312 -0.009281 0.006015 -0.018009 -0.037680 -0.034851 0.002760 -0.045928 -0.007241 
sich 0.019015 -0.018057 0.004383 0.017511 0.020167 0.032270 0.016807 -0.011079 -0.019065 0.028448 
sie 0.045558 -0.030168 0.003992 -0.012834 -0.035661 -0.024007 0.011320 0.003192 0.035215 -0.002956 
ich -0.009973 -0.025124 0.034382 -0.044222 -0.018883 0.001081 -0.045428 -0.043506 -0.033346 -0.045898 
esel 0.003446 0.014794 0.053609 -0.035394 0.038850 0.007415 0.034317 -0.028633 0.020489 0.012627 
dem 0.033108 -0.037026 0.017834 -0.006150 -0.052366 -0.037083 0.042042 0.021000 -0.010074 0.047724 
er -0.045269 0.026539 -0.027361 0.001084 0.010916 -0.002545 0.011009 -0.030801 -0.000732 -0.003995 
in -0.043585 -0.047892 0.047162 -0.028120 0.036539 -0.018223 0.034617 -0.048466 0.058836 -0.018612 
du 0.003916 -0.044230 0.012938 0.038299 0.039280 -0.007085 -0.036237 0.025228 -0.018203 0.015824 
aber 0.018536 0.012220 -0.040557 -0.011225 0.007195 -0.011213 -0.046886 0.027462 0.003998 -0.005274 
mit -0.051462 -0.036526 -0.022968 -0.046357 -0.025708 0.013570 -0.002340 0.032461 -0.021318 -0.043284 
das -0.012969 0.042217 0.042299 -0.031398 -0.048325 0.028243 -0.009291 -0.002267 -0.007780 0.002652 
hahn -0.044694 -0.008667 -0.027388 0.005627 0.006262 0.050070 0.020619 0.020490 0.038048 0.023905 
was -0.005799 0.010831 -0.023675 0.045925 0.017334 0.031378 0.031918 -0.026877 -0.037310 -0.006608 
es 0.019015 0.039057 0.030260 -0.033175 -0.030221 -0.057214 -0.009712 -0.022875 -0.030166 -0.015177 
katze 0.006136 -0.052587 0.012688 -0.014030 -0.046991 0.042845 -0.023529 -0.001199 0.034139 -0.003296 
hat 0.047730 0.009007 0.010504 -0.022118 -0.021440 0.002211 0.038055 0.009378 0.021296 0.018728 
nun 0.031139 0.019358 0.035238 -0.020908 0.008187 -0.004197 -0.032911 0.031820 -0.002950 0.033262 
nach -0.000573 -0.001388 0.019723 -0.034720 -0.010743 -0.008405 -0.032948 0.037729 0.050850 0.017012 
hund -0.044654 -0.049087 -0.010190 -0.015279 -0.027793 0.018340 0.027796 -0.035879 0.043239 0.016470 
nicht 0.014983 -0.008754 0.037069 -0.009879 -0.048813 0.000473 0.044153 0.004217 0.025154 0.023046 
sprach -0.008787 -0.000059 0.021573 0.010881 0.026946 0.013640 0.027173 0.055594 -0.020928 -0.007342 
an 0.017752 0.024230 -0.031182 0.009708 -0.041524 -0.011835 0.005851 -0.040685 0.049929 -0.007160 
einen 0.042050 -0.045748 -0.048720 -0.047210 -0.019208 -0.001722 0.001245 -0.011518 -0.027612 0.008721 
als 0.024940 -0.008758 0.014565 -0.014724 0.023320 0.041238 0.002172 0.008982 -0.021804 0.045193 
mich -0.021339 0.046459 0.014220 -0.048398 -0.014565 0.029282 -0.052527 -0.012182 0.034873 -0.048535 
dass -0.046300 -0.006394 -0.006443 0.004583 -0.022062 0.027199 0.003594 -0.006904 -0.021998 0.046842 
war 0.022678 -0.020053 0.007622 0.002984 -0.017159 -0.024374 0.032219 -0.033389 0.043706 -0.009445 
so -0.017545 -0.006531 -0.046717 -0.020648 0.050141 0.026344 0.006788 -0.010256 0.040318 0.036177 
weil 0.014028 0.024753 -0.013798 -0.026275 0.014382 -0.038720 0.039314 0.034508 -0.032728 0.037941 
räuber 0.026312 -0.030643 0.031297 -0.001833 0.015343 0.009499 -0.029757 0.005499 -0.036123 -0.007195 
zu 0.048485 -0.030281 -0.014443 0.014555 -0.014588 0.002862 -0.050401 -0.007423 -0.032922 -0.019730 
wie -0.015072 -0.012974 0.016663 -0.016442 -0.035020 0.039686 0.024832 -0.047022 -0.014498 0.033690 
vier -0.026341 0.041621 0.008224 -0.048990 0.003743 -0.020343 -0.000171 -0.025606 -0.007350 -0.043191 
aus 0.048811 0.046768 -0.044794 0.044557 0.006886 -0.045299 -0.013430 -0.027361 0.031086 0.030556 
haus 0.022234 -0.025098 0.024970 -0.038813 0.019732 -0.035507 -0.043591 -0.013191 -0.047486 -0.043500 
bremen 0.024317 -0.041699 -0.020022 -0.020469 0.019355 -0.000098 -0.051561 -0.018882 0.023783 0.037049 
eine 0.016095 -0.038760 -0.004431 0.045881 0.033210 0.022639 -0.045022 0.001973 0.007429 -0.008182 
auch -0.041144 0.004330 -0.030069 -0.015818 -0.003789 -0.045819 -0.044878 -0.029443 0.045237 -0.028013 
uns 0.011334 -0.032128 -0.038329 -0.034556 0.026718 0.026495 -0.042241 -0.014981 0.038469 0.028506 
wo 0.039226 -0.001118 0.042969 0.044320 -0.032757 0.015881 0.042786 -0.019559 0.022108 0.037636 
wir -0.021480 -0.040361 0.047863 -0.037776 -0.015257 -0.039960 -0.013232 0.035186 -0.008915 -0.000017 
einem -0.004280 0.035271 0.016447 -0.048097 -0.047529 0.013748 -0.029267 0.035091 0.010187 -0.035366 
licht 0.025731 -0.013382 -0.044941 0.046013 -0.005666 0.019908 -0.048009 0.004464 -0.026775 -0.007858 
ist -0.001402 -0.009060 0.023233 0.023920 0.033028 0.003350 -0.018660 0.001181 0.040903 -0.038384 
noch -0.026956 -0.018886 -0.001838 -0.030154 0.045252 0.051608 -0.009392 -0.013960 0.028444 -0.016816 
fort -0.022625 0.021899 0.007634 -0.040087 0.009476 0.028237 0.027685 0.048819 -0.022815 -0.015992 
für -0.013300 0.007195 0.040260 -0.022866 0.008619 0.008727 0.043865 -0.041982 0.028370 -0.019625 
weg -0.035291 0.035790 -0.002856 -0.006152 0.007835 0.031771 -0.015857 -0.031327 -0.040214 -0.004586 
ins -0.001348 0.025825 0.018859 -0.025699 0.048779 -0.047523 0.004390 -0.038938 -0.011269 0.034290 
ihn 0.040431 0.034064 -0.029240 -0.022515 0.022913 -0.021371 -0.015906 -0.035718 0.008756 0.008362 
stadtmusikant 0.040816 0.021889 -0.000952 0.003029 -0.038576 -0.001981 0.038952 -0.022407 -0.014691 -0.046165 
werden -0.043298 -0.009764 -0.022217 0.035934 0.000285 0.046014 0.012887 0.039172 -0.022197 0.018461 
vor 0.040027 0.042675 0.045483 0.035215 -0.005363 -0.006761 0.003592 0.006147 -0.044346 -0.040933 
ihm 0.001010 0.010403 -0.025338 0.017566 -0.001556 -0.034301 -0.013000 0.024714 -0.035871 0.023624 
daran 0.001917 -0.014186 0.045819 0.005516 0.005060 -0.029222 -0.027849 0.039794 -0.048863 -0.019980 
doch -0.017797 0.003218 -0.002079 0.025312 0.008459 -0.012943 -0.033096 -0.021398 -0.008398 -0.004300 
ach 0.048573 -0.004583 -0.036656 0.039280 -0.035144 0.035851 0.042806 0.042348 -0.013711 0.051328 
sagte -0.000055 -0.009537 0.046582 0.034915 0.022945 0.010626 -0.044378 -0.032978 -0.036511 0.000864 
gesicht -0.023788 -0.027094 0.038315 0.025228 0.002392 -0.029778 -0.027163 -0.024626 -0.039888 -0.037962 
fenster -0.041815 -0.042931 -0.027276 -0.025448 -0.019019 0.010779 0.016763 0.024007 -0.004356 0.044700 
zur 0.044208 -0.008419 -0.050594 0.050436 0.008338 0.031698 -0.026788 0.031500 0.030775 0.010831 
gingen -0.042864 -0.004564 0.029553 -0.023184 -0.044717 -0.042763 0.005121 0.030572 -0.020268 -0.003035 
mir 0.000403 -0.021165 -0.044846 -0.011918 0.040907 -0.003064 -0.030949 0.032813 0.018900 0.031070 
hof -0.011990 -0.039364 0.047040 -0.019022 0.025948 0.027330 -0.007001 -0.037572 -0.032718 -0.036360 
kamen -0.020348 -0.029542 0.016837 0.023738 0.000024 -0.009551 -0.031128 -0.005771 0.039146 0.038987 
lief 0.041486 0.030789 0.006987 0.048678 -0.008984 -0.007278 0.011642 0.043942 0.001621 -0.020706 
rief 0.003099 0.002534 -0.036831 0.027396 -0.003271 -0.017035 0.028200 0.023747 -0.029054 0.005466 
kein -0.001311 0.016804 -0.038387 -0.008361 -0.034844 -0.021200 0.019583 0.027327 -0.039753 -0.026338 
kann 0.043248 0.037716 0.036101 0.012490 0.021494 0.041522 -0.047847 -0.025379 -0.019174 0.019214 
bei -0.046243 -0.027537 -0.002390 -0.001962 -0.050318 -0.020569 -0.023802 -0.019559 -0.028158 0.037130 
sein 0.025036 0.019693 0.020297 -0.038188 0.023128 0.002693 0.004037 0.011516 -0.030728 0.043926 
bein 0.027531 -0.022957 0.000748 -0.032857 -0.033009 0.011802 0.031489 0.009036 -0.045737 -0.050030 
tag 0.034154 -0.011976 0.005217 0.033842 -0.024084 -0.032775 -0.004869 0.042040 -0.004006 0.033084 
von -0.037463 -0.041899 -0.038160 0.000336 0.044703 -0.024922 0.014586 -0.030522 0.020341 0.033977 
soll -0.047701 -0.003374 0.041472 0.040181 0.023683 0.045224 0.043288 0.019431 -0.037672 -0.043617 
gut 0.019162 -0.026636 0.018222 0.038864 0.031384 0.050310 0.020434 0.011908 -0.032246 0.032281 
ja 0.035090 0.028958 -0.022345 -0.019824 -0.021608 0.005458 0.042108 -0.000846 0.028203 0.001374 
vorbei 0.012750 -0.000723 -0.010045 0.012651 -0.017004 0.040529 -0.016428 0.050101 0.027257 0.050044 
hatte 0.023944 -0.050005 -0.012101 0.048580 0.015297 -0.001156 0.007461 -0.031259 -0.008383 -0.030964 
mann 0.022469 -0.023319 0.033408 0.004294 0.033212 -0.049774 0.046369 0.019409 0.024601 0.014564 
lange 0.049345 0.015384 -0.023252 0.032622 -0.007434 -0.021784 0.048592 0.007937 -0.030092 0.037901 
immer 0.038211 -0.007925 -0.037885 -0.043713 -0.004989 0.050605 0.009621 0.030060 -0.012172 0.001786 
ward -0.026494 -0.031783 0.022672 -0.030803 -0.007051 0.041066 0.015290 -0.005344 0.015624 -0.041255 
herr -0.019738 0.047553 0.015968 0.045887 -0.044273 -0.046058 -0.047958 -0.021932 -0.014760 -0.006076 
guter -0.014818 -0.035428 -0.029633 0.023970 -0.010632 -0.044485 -0.003601 -0.001655 -0.050761 0.033824 
machte 0.000822 0.029984 0.035933 0.036782 0.015036 -0.043753 0.004982 -0.005683 -0.040018 -0.016370 
dort 0.008214 0.046336 -0.046037 -0.047816 0.002651 0.041719 0.023991 -0.006720 -0.021493 0.024695 
meinte 0.033596 -0.033795 -0.039621 0.001032 -0.028516 -0.032908 -0.020630 0.028852 -0.037349 -0.024070 
fand -0.009091 0.011249 -0.030896 -0.013137 0.023831 0.003754 -0.011607 -0.016477 0.001652 0.036223 
einer 0.033187 -0.043217 -0.013704 0.045572 0.018864 0.043911 -0.000515 -0.034258 -0.013331 -0.049891 
müde -0.024172 -0.014901 0.028759 -0.031005 0.002273 -0.018291 -0.006005 0.041103 -0.013346 -0.044665 
fragte -0.007842 -0.020903 0.023934 -0.027175 -0.010629 -0.018091 -0.020878 0.019711 -0.031347 -0.018564 
werde 0.002327 0.003123 0.019998 0.009000 0.002643 -0.009608 0.042300 -0.034948 0.047492 0.025299 
mehr -0.003743 0.032969 0.009114 0.039723 -0.037174 -0.040198 -0.049032 0.028038 -0.021391 0.018486 
mein -0.020504 0.033739 -0.013788 0.004093 -0.008770 0.046393 -0.019170 -0.035004 -0.007726 0.030497 
wollen -0.031459 0.022474 -0.033814 -0.045922 0.029425 -0.003981 0.020817 -0.015866 -0.028476 -0.033466 
hab -0.033974 -0.016534 -0.020585 0.026825 -0.047916 0.016023 0.047226 0.046043 0.023221 0.004794 
geh 0.006587 0.032559 -0.030307 0.025658 0.004884 -0.002507 -0.007805 0.006021 0.000540 0.021385 
dich 0.029882 0.013543 -0.025829 0.020337 -0.037361 0.010648 -0.040196 -0.010170 -0.049556 -0.035210 
musik -0.046691 -0.044592 0.016523 -0.045285 0.021740 0.043037 -0.051632 -0.037651 -0.043929 -0.008925 
weiter 0.003099 -0.046593 -0.007526 0.037642 0.013595 0.003141 0.037462 0.043581 0.010640 0.009508 
sass -0.000119 -0.034993 0.042079 -0.043549 0.005044 0.001848 -0.003448 -0.008934 0.003533 0.048268 
drei 0.044991 0.025116 0.013051 0.048421 0.001330 -0.009477 -0.003246 0.026398 -0.006150 -0.022486 
antwortete 0.023622 -0.043793 -0.010805 -0.021728 0.024504 0.021964 -0.005614 -0.030215 0.043930 0.025646 
meine 0.007520 0.001837 -0.007039 -0.002623 0.000335 0.004332 -0.018720 0.006620 -0.021230 0.024414 
lieber 0.040018 0.045041 0.020193 0.018246 0.022430 -0.007191 0.014168 0.048629 0.038429 0.021248 
hinter 0.012068 -0.026956 0.034708 0.023668 0.046998 -0.044936 -0.048795 0.037603 -0.007030 -0.036879 
hielt 0.034253 -0.029393 0.030624 0.044530 0.020423 0.031245 0.005242 0.047837 0.036047 0.019137 
ging -0.033194 -0.040800 0.036956 0.018103 0.044122 -0.038171 -0.019869 -0.029077 -0.031939 0.048030 
schrie -0.028700 0.018713 -0.021334 0.039755 -0.012108 0.046796 -0.010148 -0.031067 -0.022017 0.012277 
durch 0.021229 0.019757 -0.022755 -0.031725 0.008975 0.010203 0.029965 0.037396 0.031927 0.027640 
hast -0.036576 0.000179 -0.030641 0.031249 -0.030538 0.021066 -0.001808 -0.008667 0.032048 -0.039416 
morgen -0.038375 -0.023567 0.001005 -0.022847 -0.001570 0.013785 0.004471 -0.028482 -0.028617 0.030516 
wollte -0.021003 0.020400 -0.042065 -0.003178 -0.020048 -0.039130 -0.020150 0.031578 0.010003 -0.034213 
essen -0.048552 -0.011736 0.049185 0.040240 0.017973 0.031820 0.005716 0.042606 -0.007485 -0.041924 
kopf -0.009864 -0.031636 0.024602 0.020979 0.020495 -0.040772 0.036894 -0.041050 -0.011781 -0.013574 
lassen -0.048202 -0.027286 -0.038336 -0.009577 0.036396 0.013876 -0.013185 0.003815 -0.043137 0.017627 
etwas 0.021380 -0.008052 -0.035661 -0.033121 0.002395 0.002100 -0.018048 -0.026827 -0.024424 0.018532 
zusammen 0.044476 -0.003480 -0.007565 0.040677 0.031102 -0.033213 -0.037416 -0.021279 -0.016163 -0.024938 
wald -0.027061 0.030811 0.028402 -0.028978 -0.032812 -0.012048 0.039948 0.037489 0.030698 -0.027000 
machten -0.032574 0.045801 -0.027120 0.007042 -0.006546 0.028025 0.052880 0.029875 -0.014180 -0.001287 
flog -0.018179 -0.008078 -0.006669 -0.011633 -0.027532 0.016469 -0.037569 -0.022754 0.035009 0.041982 
bis 0.038590 -0.046921 -0.045877 -0.024241 -0.047359 0.019006 -0.022607 -0.019812 -0.030715 0.026941 
um 0.014262 0.002846 0.040359 0.033116 0.002661 -0.042696 -0.045630 -0.051822 0.023535 0.009472 
gesellen -0.036770 -0.048019 -0.040135 -0.024789 0.038684 0.023387 0.007263 -0.029706 0.033845 -0.026748 
denn 0.017633 0.024409 -0.022261 0.016542 -0.014502 0.010627 0.036687 -0.011009 -0.046959 0.003685 
hingehen -0.012242 0.008744 -0.001280 -0.016736 -0.002750 0.043229 0.010936 0.043381 0.021550 0.021839 
sahen -0.010754 0.032087 0.029013 0.002998 0.017632 -0.028860 -0.040432 0.027672 -0.040884 -0.048790 
bald 0.000056 -0.017441 -0.024191 -0.004179 -0.030216 -0.044578 0.030197 -0.046409 0.041229 -0.014473 
hinein -0.035909 -0.029541 -0.030891 0.012584 0.005940 0.009127 0.045506 -0.028492 0.044270 0.020388 
tisch 0.008857 0.001766 -0.020397 0.016732 -0.015225 -0.012077 0.050909 0.002405 0.011940 -0.043570 
wohl 0.035339 -0.007610 -0.010513 -0.046881 0.032839 0.048567 0.026557 -0.016205 0.011342 -0.045086 
endlich 0.008148 -0.010854 -0.029990 0.033501 -0.008941 -0.035102 -0.027281 0.006496 -0.006582 0.029128 
setzte 0.044634 0.047417 0.042900 -0.011968 -0.044997 0.032877 0.035548 0.018811 -0.047381 0.035721 
hinaus 0.003935 0.043834 0.026998 0.005314 0.034394 -0.023440 -0.031488 -0.005330 0.030689 0.025500 
waren -0.035185 0.035053 0.011656 0.046970 -0.036131 0.040394 0.049546 -0.002469 -0.003898 0.009096 
tür 0.048331 0.036751 0.007585 0.024628 0.042401 0.006411 0.016451 0.005823 -0.020920 -0.029755 
langen -0.009123 -0.018839 -0.014367 0.029329 0.035606 -0.045172 -0.015349 -0.028957 -0.000190 0.013030 
alles -0.035818 -0.035161 0.040785 0.025870 0.032014 -0.001925 0.027249 0.027340 0.013985 0.002062 
hauptmann 0.006490 0.049760 -0.030210 -0.004677 -0.047775 0.049177 -0.026893 0.010870 0.043554 -0.040304 
sprang -0.024787 0.013952 -0.038589 -0.009325 0.047491 0.019948 0.005569 -0.005281 0.007302 0.006008 
vom -0.001149 -0.003193 0.029114 -0.025577 -0.022442 -0.038191 0.004937 0.041108 0.029083 -0.024498 
sitzt -0.003597 0.043191 0.019816 0.020228 0.023595 0.031338 -0.018596 0.006710 0.000432 -0.038619 
jahren 0.046400 0.019957 -0.046528 -0.029713 -0.040147 -0.000095 -0.042302 -0.022181 -0.043551 0.030183 
schlaf -0.037397 0.031541 0.024797 0.016118 0.032905 -0.049797 0.005573 -0.020597 -0.013442 0.037274 
zähne -0.029705 0.005038 -0.037807 -0.010589 0.027698 -0.029794 -0.031357 0.027319 -0.021246 -0.043126 
stumpf -0.017629 0.008558 0.040023 -0.023938 -0.049342 -0.042343 -0.011465 -0.042854 -0.006522 -0.018359 
geweckt 0.012927 -0.034078 0.015463 -0.015685 0.029738 -0.008279 0.042974 0.029345 0.039397 -0.000442 
munter -0.037329 0.044525 -0.015411 -0.019854 0.010534 -0.049999 -0.036687 0.003503 0.043905 -0.029383 
ofen 0.015299 0.032614 -0.010685 0.017978 -0.048591 -0.039579 -0.001332 -0.031729 0.016885 -0.044887 
sitze 0.012758 -0.034016 -0.028602 0.044739 0.004073 0.046779 -0.041003 0.034429 -0.048365 0.015157 
spinne 0.030939 -0.045840 -0.016626 0.027480 0.012296 -0.007317 -0.014759 0.030159 -0.016374 -0.043571 
mäusen -0.024987 -0.015427 -0.047066 0.039800 -0.046910 0.010138 0.006811 0.006535 -0.050376 -0.021443 
herumjagen -0.001904 -0.038988 0.042561 -0.048902 -0.019190 0.042492 0.023521 0.031247 0.002966 -0.017494 
frau -0.010244 -0.040744 0.029122 0.045363 0.006796 -0.017587 -0.014646 -0.021952 0.041041 0.031946 
ersäufen -0.029570 0.001716 -0.010096 -0.047237 -0.019298 -0.046008 0.014909 0.038260 -0.035207 -0.032832 
habe -0.046899 -0.047741 0.023192 -0.012009 0.014136 0.031038 -0.042063 0.039643 0.025005 0.025432 
zwar 0.039653 0.006349 0.034187 -0.036100 0.031180 0.012457 -0.008112 -0.018763 0.026091 0.005715 
jappte -0.007952 0.035800 0.037768 0.028606 0.023599 -0.027293 0.042133 0.032898 -0.017866 -0.010563 
fortgemacht -0.036238 0.001850 -0.035822 -0.051650 0.024047 -0.007927 0.002678 -0.003817 -0.015725 -0.019191 
rat 0.044496 0.018247 -0.014346 0.008872 0.019342 -0.022028 0.040812 0.010997 0.017640 0.014314 
teuer -0.008952 0.024730 0.045242 0.040688 -0.036078 -0.001854 0.020644 0.039756 -0.034186 -0.019962 
liegen -0.036810 0.019732 -0.014323 -0.040407 0.024871 -0.030254 0.015955 0.038252 -0.003671 -0.039089 
hin 0.037844 -0.046702 -0.012502 0.002092 -0.018284 -0.010314 0.017259 0.037773 0.011344 -0.003511 
wege -0.040809 -0.030600 -0.042228 -0.044071 -0.049792 0.014467 -0.047916 0.000619 -0.035785 -0.001463 
verstehst -0.034434 0.017041 0.008519 0.005082 -0.039242 0.049780 0.027841 0.041937 -0.022228 -0.001426 
jagdhund -0.043150 -0.014814 0.027095 -0.013051 0.006782 0.008721 -0.024702 -0.022330 0.014670 0.032946 
nachtmusik -0.014020 -0.043823 0.034489 -0.002488 0.038157 -0.025844 0.035826 0.027676 0.048585 0.027327 
kannst -0.024279 -0.035493 -0.000089 -0.010875 -0.028956 -0.006182 -0.036185 0.027989 -0.003551 0.048177 
geworden -0.036489 0.042112 0.031732 -0.009133 0.011613 0.019127 0.029009 0.026356 0.046069 0.049717 
fortgegangen 0.028101 -0.027209 0.013847 0.005157 -0.026128 -0.028357 -0.038287 -0.031747 -0.018315 -0.003007 
weilchen -0.004735 -0.011011 -0.006975 0.043141 0.037458 -0.022614 -0.004395 0.046839 0.000572 0.006073 
könnte -0.015192 0.008960 -0.014949 0.019024 -0.041100 0.045188 0.024078 -0.014365 -0.000897 -0.044004 
balken -0.004770 -0.033269 -0.015084 0.008964 -0.012304 -0.047832 0.000473 -0.024042 0.031529 0.036767 
darauf 0.031030 -0.047532 -0.020303 -0.048640 0.009378 -0.013501 -0.048878 0.020936 0.005201 -0.048347 
wehte 0.042800 0.019707 0.041286 -0.022205 0.030494 -0.002573 -0.001026 0.027817 0.034237 -0.027926 
landesflüchtigen 0.014907 0.026151 0.014810 -0.011625 -0.011097 -0.035530 0.010064 0.050812 0.015898 0.007503 
wind -0.028384 0.021751 0.023624 0.023815 0.014522 0.017834 -0.049989 0.034146 -0.015892 0.002986 
merkte 0.018468 -0.041454 -0.034344 0.005742 0.029873 -0.028450 -0.023306 0.010255 0.019183 0.020462 
tor 0.041102 0.008341 0.029247 0.004376 -0.043997 -0.022141 -0.007402 0.006186 -0.045151 -0.040839 
haushahn -0.024588 0.042162 -0.024123 -0.024208 0.047447 -0.036324 -0.032225 -0.035140 -0.036436 -0.038424 
herab 0.036086 0.042970 0.011206 -0.038284 0.009189 0.006748 0.043687 0.000267 -0.005135 -0.016595 
leibeskräften -0.002327 -0.006900 0.036088 -0.034613 0.045729 0.018846 0.041230 -0.009791 -0.005930 -0.006463 
schreist 0.001169 0.000227 -0.017793 -0.015168 -0.016499 0.022260 0.026204 -0.009261 0.003012 -0.024450 
kikeriki 0.010039 0.033126 0.010844 0.030831 0.036376 0.021975 -0.006771 -0.028328 0.009604 -0.014274 
mark 0.031924 0.043116 -0.035894 -0.024352 -0.025204 0.029184 -0.001664 -0.014535 0.007863 -0.006792 
schaffen 0.026233 0.010578 -0.012343 -0.031214 -0.002983 -0.024633 -0.043735 0.048368 -0.001025 0.043834 
konnte -0.003776 0.022384 -0.036671 -0.008555 -0.034115 -0.010094 -0.041964 0.048585 -0.018995 0.022809 
futter 0.045893 0.002626 -0.023566 0.014401 0.036358 0.048448 0.011977 -0.035867 0.048364 -0.047711 
wetter 0.013187 -0.000695 -0.035657 0.002318 0.021602 -0.033245 0.043130 -0.003740 -0.011389 -0.008740 
prophezeit -0.006084 -0.034042 -0.028429 -0.043376 -0.045706 -0.029931 -0.046984 0.033337 0.008380 0.033312 
dachte 0.032412 0.047298 0.025096 -0.003370 -0.042891 -0.037874 0.020605 0.006637 -0.019869 0.049230 
unserer 0.019658 0.007540 -0.042071 -0.013001 0.028968 -0.033435 -0.007558 0.039206 -0.043425 -0.048342 
lieben 0.020842 -0.022655 -0.003794 -0.040868 -0.030962 0.033667 0.000318 0.047077 -0.009539 0.046199 
frauen 0.049190 0.003094 0.047234 -0.001938 -0.045530 -0.043105 -0.010660 0.044104 0.025076 -0.033638 
christkindlein 0.046283 0.018883 -0.025575 -0.035687 -0.026568 -0.022981 -0.040472 -0.021852 0.020891 -0.010873 
hemdchen 0.035563 0.016763 -0.029704 -0.027981 0.017842 0.011759 -0.022484 -0.017364 0.024763 -0.034561 
gewaschen -0.019886 -0.040360 0.018596 -0.006430 -0.031171 0.008332 -0.013382 0.050698 0.034675 -0.007687 
trocknen 0.005157 0.004881 -0.040922 -0.014625 0.014283 -0.013823 -0.024452 -0.048664 0.010960 0.019489 
will 0.002680 0.011371 0.035821 0.049101 -0.016205 0.046448 -0.012737 -0.039740 0.012745 -0.026142 
seinem -0.039657 0.016797 -0.034744 0.039215 -0.022658 -0.014137 0.037024 -0.032454 0.024324 0.022361 
zum -0.007475 -0.000292 -0.039494 -0.015459 -0.018414 -0.000753 -0.032333 0.041370 0.007276 0.027122 
sonntag 0.008403 0.007199 0.028522 -0.006173 -0.047871 -0.035923 -0.001261 -0.047440 -0.023654 -0.016774 
gäste 0.038580 0.008522 0.042555 0.030265 0.047470 -0.023786 -0.039341 0.034579 -0.009482 -0.012478 
kommen -0.004939 -0.006256 -0.045804 0.048463 -0.027373 0.001875 -0.042186 0.016214 -0.035189 0.049141 
hausfrau 0.024273 -0.034968 -0.043475 -0.020074 0.015549 0.008270 0.045974 0.022957 0.045744 0.017760 
erbarmen 0.038816 0.000212 0.032281 0.007440 -0.028728 0.036583 -0.022809 0.020328 0.008777 -0.041038 
köchin 0.022574 0.022605 -0.035340 0.004781 0.042913 -0.019236 -0.010826 -0.046750 -0.008619 0.047616 
gesagt 0.030751 -0.046989 0.030247 -0.036477 -0.043544 0.045128 -0.030407 0.049115 -0.025243 0.017658 
zurück 0.020654 -0.044838 -0.027251 0.000654 0.028624 -0.048799 0.011099 -0.005451 0.029353 -0.049753 
suppe 0.024244 0.001666 -0.008579 -0.002280 -0.021542 0.036349 0.048243 -0.018202 0.030746 0.008326 
heraus -0.048091 -0.017936 0.009919 0.022964 0.015124 -0.027534 -0.030273 -0.040451 -0.029459 -0.016400 
untauglicher 0.038534 -0.046779 0.015445 -0.042188 -0.011622 0.040619 0.007991 0.036514 -0.009165 -0.029598 
heut 0.002621 -0.025833 -0.043959 -0.027923 -0.031728 -0.023792 -0.004161 -0.040316 -0.023741 -0.037240 
abend -0.003667 -0.039335 0.048842 -0.032736 0.024359 0.045557 -0.033480 -0.041229 -0.042009 0.045785 
greuliche -0.043481 -0.011703 0.031231 -0.011478 -0.024281 -0.025951 -0.013295 0.038835 -0.001199 0.004090 
abschneiden 0.020676 0.004391 -0.008359 -0.012338 0.004536 0.040697 -0.050145 -0.004182 -0.046975 0.035161 
hexe -0.001106 0.009717 -0.046816 -0.023564 -0.047571 -0.038425 0.026232 -0.020114 0.049124 -0.016059 
schrei 0.016091 0.010685 -0.039793 -0.033235 -0.020143 -0.012980 -0.016459 0.047010 0.031150 -0.003127 
vollem 0.017453 0.044119 0.046418 0.035850 -0.000199 0.001181 -0.042076 -0.040879 0.003417 0.035718 
hals -0.030786 0.027937 0.035860 -0.025107 0.044774 -0.048534 -0.005488 -0.000420 -0.039382 0.038514 
solang 0.041815 0.002483 0.016254 0.039188 0.047816 -0.009426 0.017744 -0.017902 0.024719 -0.028241 
ei 0.037915 -0.000126 0.034428 0.028674 0.008752 -0.016235 0.044847 0.017735 -0.037313 -0.006558 
rotkopf 0.040081 0.015711 -0.025829 0.047066 0.039274 -0.021348 -0.029053 0.022865 0.000411 0.045215 
zieh 0.004382 0.020341 0.022856 -0.025309 -0.015153 0.009391 0.012801 -0.009021 -0.014226 -0.045503 
arbeit -0.036375 -0.009440 0.008812 -0.021774 0.036730 0.032847 -0.032507 -0.032042 -0.025526 0.034253 
gehen -0.005268 -0.001922 -0.026728 0.004167 -0.049049 0.044505 0.039673 0.045957 0.040769 0.002018 
angehaucht 0.048936 -0.002022 -0.027224 0.021890 -0.030816 0.043591 0.031120 0.012528 0.031117 0.024206 
besseres -0.028314 0.020079 -0.049642 0.000655 -0.018513 0.037926 0.033898 -0.042084 -0.011302 0.029299 
tod -0.004425 0.003412 -0.005306 -0.001198 -0.025928 -0.037526 -0.026068 0.046565 -0.011275 0.028469 
findest -0.017872 -0.022237 -0.008456 -0.014970 0.001563 0.043089 -0.049236 -0.034087 -0.031795 -0.024430 
überall 0.001746 0.010548 0.044889 0.035001 0.031522 0.003771 0.006087 0.004519 -0.030433 0.009128 
gute 0.038230 -0.022553 -0.048181 -0.007762 -0.026327 0.036966 -0.006811 0.028246 0.047500 -0.033501 
stimme -0.005508 0.019500 0.000515 -0.047043 0.005766 -0.034724 -0.026220 -0.029575 0.043790 0.037109 
wenn -0.002722 0.002209 -0.013755 0.042221 -0.029354 -0.035927 -0.000967 0.003033 0.023890 0.049117 
ihren 0.030665 0.043825 0.035951 0.045951 -0.031694 0.013706 -0.005353 0.043641 0.047940 -0.041425 
musizieren -0.012864 -0.027725 0.028786 0.007083 0.015307 -0.036119 0.038772 -0.026266 0.023200 -0.026223 
muss -0.028479 -0.010454 0.010632 0.049476 0.040428 0.020208 -0.045263 0.032818 -0.000342 0.008846 
art 0.050104 0.008322 -0.017263 -0.009098 0.000991 0.012260 -0.013545 -0.043191 0.003509 -0.014586 
haben -0.034056 0.026602 0.012006 0.009749 -0.020619 0.036540 0.041324 -0.040993 0.006610 -0.014762 
liess 0.013051 0.041070 0.014706 0.031698 -0.035063 0.036693 0.003194 -0.000741 0.006588 0.003311 
vorschlag 0.011576 0.017517 0.014804 -0.008288 -0.014391 -0.022920 0.014302 0.007120 0.016078 0.021514 
gefallen -0.049210 0.031855 -0.023674 -0.044269 -0.031662 0.012535 -0.045688 -0.045478 -0.041642 0.002926 
alle -0.049613 0.002585 -0.046327 0.004468 0.018866 -0.046320 0.048107 0.002674 -0.034891 -0.013987 
ende 0.027327 -0.026883 0.049244 -0.037171 -0.041738 0.003064 -0.043950 -0.005386 -0.041231 0.026250 
konnten 0.023196 -0.036338 -0.028844 0.008020 -0.045826 0.046547 -0.013986 -0.005819 0.038758 -0.026720 
stadt -0.016946 0.039337 0.015001 0.047063 -0.014839 -0.011255 0.005140 -0.030902 0.035349 -0.030217 
erreichen -0.006129 -0.024683 0.007867 0.017782 -0.027868 0.044387 0.036010 -0.039889 0.050920 -0.024721 
abends 0.019501 0.014824 -0.009291 -0.029799 -0.022069 0.006581 -0.004003 0.012965 0.016455 0.012670 
fingern 0.018056 -0.049518 -0.037931 0.006386 0.007068 0.046230 0.046111 0.009496 0.002546 0.042288 
übernachten -0.028222 0.042601 -0.003701 0.032612 -0.012695 -0.019887 -0.003141 0.002400 -0.012388 0.032905 
wollten 0.034780 -0.022794 -0.035193 -0.020635 -0.015795 0.023072 0.036628 -0.012081 0.029445 -0.031325 
legten 0.021252 0.034960 0.008964 -0.019208 0.036501 0.008692 -0.048059 0.016202 0.021999 0.039701 
unter 0.033784 -0.023589 0.005423 0.048080 -0.021149 -0.003088 0.036927 -0.013346 -0.036999 0.046329 
grossen -0.039808 0.042894 -0.001482 0.049257 0.042440 -0.030711 0.034854 0.002606 0.031523 0.024114 
baum -0.041312 -0.001467 0.038528 0.009305 -0.016862 -0.032327 -0.048944 -0.045035 -0.026429 -0.028048 
zerkratzt 0.026400 -0.037705 -0.041841 -0.016713 0.024711 0.027132 -0.039532 0.020587 0.034698 0.022765 
äste 0.012856 -0.009731 -0.011961 0.001285 0.015616 0.008410 -0.012950 0.003322 -0.024036 0.012914 
steht -0.028615 0.020247 -0.039919 -0.041761 0.029383 0.004848 -0.049187 0.038320 0.044075 0.002532 
messer -0.028645 -0.006351 -0.020079 0.030774 0.043393 -0.016561 0.012686 0.039885 -0.033959 -0.042242 
spitze -0.042818 -0.039740 0.033868 0.017736 0.002364 -0.046704 0.014973 0.041531 -0.049013 0.045612 
am -0.011023 0.026030 0.040358 0.010627 0.030526 -0.003672 0.024038 -0.001089 0.045540 0.020433 
sichersten 0.045205 -0.040350 0.032083 -0.028272 0.032095 0.024583 0.013718 -0.017373 0.005789 -0.041728 
ehe 0.045395 -0.005426 0.046925 -0.030543 -0.018972 0.045812 -0.023410 -0.040689 0.044211 -0.018958 
einschlief -0.010988 -0.014557 0.031675 -0.034372 0.008167 -0.002205 0.010703 0.039887 -0.032102 -0.001330 
sah -0.022608 -0.020163 0.029203 -0.021990 -0.017076 0.032679 0.000315 -0.046801 0.021838 0.025673 
einmal 0.018774 0.025747 0.033266 -0.030345 -0.038229 0.028701 -0.044865 0.001484 0.033552 0.038554 
allen -0.022857 -0.016161 -0.005129 0.029650 -0.042658 -0.035271 -0.035559 -0.022352 -0.045159 0.001062 
winden 0.027016 -0.017147 0.012933 0.037497 0.020525 -0.047519 0.025327 0.046572 -0.037685 0.021132 
gestochen 0.028387 -0.044439 0.019393 0.028920 -0.030500 -0.013403 -0.000825 -0.029272 0.022691 0.002624 
deuchte -0.007890 0.007316 0.031857 -0.041603 -0.007134 0.035684 0.040949 0.024902 -0.035458 0.001440 
sähe -0.021631 -0.002211 -0.003246 -0.034492 0.000519 -0.012179 -0.018155 0.047998 -0.005236 -0.037140 
ferne -0.030782 -0.030167 -0.030569 -0.025862 -0.017866 0.023732 0.038336 -0.020571 -0.045514 -0.012480 
fünkchen -0.048897 -0.038234 -0.010430 0.026295 0.004629 0.014197 0.047112 0.008594 -0.039763 -0.047087 
brennen -0.030835 0.047474 0.042202 0.001922 0.048683 -0.017510 -0.038608 0.033676 -0.001650 0.043685 
kräfte 0.048246 0.035387 -0.004359 -0.009638 0.011003 -0.015249 0.007746 -0.025400 0.045816 0.017618 
seinen -0.024608 -0.001052 -0.012604 0.037827 -0.049460 -0.025074 -0.035596 -0.028191 0.013554 0.033492 
liegt 0.031973 -0.013261 0.001760 -0.016731 0.048129 -0.036465 0.021889 0.026825 0.030122 0.036540 
müsste -0.036714 0.029528 -0.028092 0.011387 0.002620 0.031418 -0.004554 0.044250 -0.040620 0.036605 
gar -0.011056 -0.034747 0.038988 0.029809 0.015163 -0.016017 0.027929 -0.042019 0.049270 0.037852 
weit 0.009165 -0.035218 0.047840 0.050648 0.013700 -0.040555 0.037840 0.043812 0.049171 0.009979 
dessen -0.032044 -0.044935 -0.037045 0.046229 -0.030899 0.040654 0.023534 0.041827 -0.011554 0.044180 
schwarzes 0.032835 -0.035075 -0.004152 0.032280 -0.021481 -0.030535 0.020628 -0.034498 -0.017883 0.019188 
scheine -0.034956 -0.003398 0.019863 0.027985 -0.032487 0.002490 -0.008423 -0.003903 0.039889 0.001947 
getragen 0.048780 -0.012513 -0.023172 0.019326 -0.005851 -0.026994 0.032558 0.015803 0.029998 0.007475 
müssen -0.024990 0.038258 -0.008632 0.033273 0.043687 0.002362 0.031403 -0.024034 0.050205 0.034603 
aufmachen -0.027181 -0.007103 0.024094 0.012480 -0.035054 -0.029709 0.033156 -0.003741 -0.044803 0.019540 
ungetüm -0.039836 -0.008775 -0.046874 0.026839 -0.010261 -0.031680 0.002439 0.034213 0.005530 0.047123 
hier -0.028369 0.013912 -0.019653 -0.010154 0.038393 -0.044148 -0.009825 0.021908 0.039169 -0.001305 
herberge 0.013119 -0.020293 -0.030743 0.008304 -0.029632 0.000597 0.009079 0.000553 -0.026756 -0.024438 
schlecht 0.018846 -0.044629 0.031070 -0.007885 0.026024 0.048773 -0.004721 -0.023845 -0.033648 -0.047532 
paar 0.028759 0.030864 -0.023017 0.029425 0.029990 0.001150 0.023085 -0.025656 -0.009014 0.000009 
knochen 0.019115 0.039251 0.020685 -0.002500 0.037451 0.003087 0.023652 -0.003362 -0.021149 -0.031483 
fleisch 0.026477 0.041563 -0.010311 0.019044 0.033261 -0.014616 -0.023158 0.016511 0.051193 0.000810 
dran 0.018293 0.039900 0.027249 0.031380 -0.016059 -0.013496 0.045382 0.032286 -0.002243 -0.032732 
täten 0.014052 0.026922 0.021291 0.005394 0.008150 -0.016940 0.023795 0.049780 -0.042479 0.026183 
mühle -0.044293 -0.033215 0.006713 -0.019719 0.010052 -0.022274 0.018952 0.045329 0.014453 -0.007973 
also 0.009043 0.006405 0.013711 0.010360 -0.041905 0.013748 -0.006224 -0.006736 -0.026705 -0.011951 
gegend -0.027999 -0.047715 0.030478 -0.002030 0.030032 -0.001720 -0.007648 0.009949 -0.019519 -0.022442 
holzkeule -0.018122 0.030327 -0.049972 0.039864 -0.039085 0.049479 0.034453 -0.002451 0.037476 0.043321 
losgeschlagen 0.019983 0.002221 0.012779 -0.007076 -0.008275 -0.000379 -0.046364 0.008819 -0.034734 -0.000535 
heller -0.037739 0.036137 -0.015467 -0.023309 0.024472 0.036439 -0.038513 0.017438 0.030481 0.015273 
schimmern 0.026554 -0.022125 -0.003063 -0.002963 -0.017512 0.042695 0.039031 -0.038789 -0.024118 0.044888 
grösser 0.002283 0.036809 -0.000319 -0.049617 0.015180 0.033015 0.019175 0.014244 -0.035801 -0.013582 
helles 0.006380 0.008049 0.003440 0.016414 -0.000864 -0.003967 -0.006807 0.018291 -0.008153 0.009455 
erleuchtetes 0.009855 -0.011669 -0.017541 -0.040110 -0.000619 -0.044583 -0.019308 -0.019670 -0.000633 0.002793 
räuberhaus -0.016326 0.031076 0.036599 0.005466 0.039404 -0.022718 0.037094 0.025212 -0.037490 0.032495 
grösste 0.019489 0.002681 -0.034797 0.017218 -0.032357 0.021771 -0.023906 0.020952 0.045141 0.051071 
näherte -0.035486 0.044117 -0.009293 0.016619 -0.005685 -0.033702 0.021579 0.036486 -0.027403 0.006128 
unverdrossen -0.033718 -0.008016 -0.011836 0.024856 -0.023248 0.045569 0.016528 -0.018161 -0.009683 0.045828 
schaute -0.001264 0.007978 0.034996 0.016116 -0.010369 0.038283 -0.006908 0.025806 -0.010068 -0.038393 
oben 0.036023 0.024915 -0.044387 0.048199 -0.004537 0.011147 -0.048098 -0.021635 -0.012490 0.015772 
siehst 0.031788 0.037129 -0.003658 -0.021492 0.045880 0.044698 0.011803 -0.021848 -0.020692 -0.022744 
grauschimmel 0.005419 -0.016722 0.028022 0.029315 0.047862 0.033400 -0.002409 0.018049 -0.011397 -0.026164 
sehe 0.022593 -0.031569 -0.019182 -0.049958 -0.001070 0.043412 -0.017658 -0.012997 0.022339 -0.043817 
gedeckten -0.017585 0.024020 0.047411 -0.042051 -0.033593 0.045688 -0.036446 0.014015 -0.000821 0.014731 
dache -0.036467 0.021892 0.050000 -0.044080 0.018504 -0.046499 0.001546 -0.047732 0.030202 0.031463 
schönem 0.003953 0.037731 0.049862 0.042211 0.001367 -0.011426 -0.009728 -0.036864 0.009629 -0.005819 
trinken -0.017756 -0.041952 0.024625 -0.027995 0.038439 -0.031489 -0.006358 -0.000088 -0.022908 0.045491 
säcke 0.008949 0.020608 -0.015627 0.028338 0.009498 -0.023141 -0.000958 0.014900 -0.031498 0.040444 
sitzen 0.003896 0.038759 0.030018 -0.023901 -0.012840 -0.020095 0.030347 -0.015833 0.022126 0.000093 
lassens -0.006165 -0.013815 -0.029276 -0.020871 0.022944 -0.019937 -0.015877 -0.019150 0.029854 -0.017924 
richter -0.024116 -0.041015 0.010073 0.023816 0.048045 0.004372 0.035500 -0.013122 -0.000552 0.023813 
wäre -0.012560 -0.033451 0.007080 -0.020759 -0.015134 -0.024391 -0.045953 -0.032551 0.026924 0.032939 
wären -0.010038 -0.008657 -0.024269 -0.002255 -0.014425 -0.046996 -0.046375 0.009426 -0.037336 0.008448 
ratschlagten -0.005688 -0.040808 -0.029818 0.041690 0.044428 -0.035335 -0.007216 0.028602 -0.010913 0.040891 
tiere -0.004164 0.016877 0.006680 0.043949 0.032301 -0.046319 0.007555 0.031726 -0.039850 0.010917 
anfangen -0.011670 0.006221 -0.000104 0.041085 -0.040756 -0.042362 0.013181 0.010079 -0.013101 -0.009267 
müssten -0.022487 0.031386 0.023589 -0.023468 -0.037671 0.008947 0.033785 -0.011190 -0.035623 -0.030046 
hinauszujagen -0.041150 0.037768 0.010078 0.026983 -0.041831 -0.032706 -0.005231 0.022477 -0.036481 -0.027476 
fanden -0.012651 0.026603 0.049099 0.018858 0.027526 -0.035739 -0.012538 -0.025320 -0.036650 -0.010483 
bringt -0.024608 0.013521 0.029845 -0.003189 0.029424 -0.034164 -0.007317 -0.003664 0.044210 -0.008280 
mittel 0.015944 0.040249 0.004770 -0.001004 0.027211 0.007611 0.031215 0.012869 0.034292 0.037612 
musste 0.016198 0.037636 -0.034613 -0.028216 -0.012090 0.007705 -0.038711 0.002502 0.011938 0.008591 
vorderfüssen 0.000673 -0.000887 -0.038594 0.002301 -0.015376 -0.010637 0.000459 -0.043795 -0.008313 0.029255 
stellen 0.022727 -0.039012 0.002846 0.040328 -0.037107 0.011962 -0.000762 0.036450 0.042269 0.007060 
des 0.020191 -0.013426 -0.026893 0.035132 -0.027124 -0.006154 -0.000876 -0.005259 0.028649 0.015641 
esels 0.042375 -0.012674 0.005246 0.048369 -0.041629 0.016930 0.008447 -0.021793 -0.040057 -0.001165 
rücken -0.004939 0.017833 -0.017988 0.049511 -0.048757 0.021222 -0.047330 0.032513 0.005266 0.003231 
springen 0.042550 -0.038653 0.016176 0.044587 -0.039376 -0.020583 -0.040465 0.001911 0.026681 -0.042424 
klettern -0.018757 -0.043969 -0.043143 -0.033513 0.020158 -0.032753 -0.017305 -0.011532 0.003161 0.024546 
hinauf -0.004814 -0.036555 0.034840 -0.024095 0.021486 0.041543 -0.011834 -0.025316 0.011920 0.029586 
schelm 0.001715 -0.002236 0.037626 -0.010351 -0.041119 -0.039269 -0.025863 -0.009148 0.021697 -0.011456 
geschehen 0.015755 0.020334 -0.015713 0.027026 0.007544 0.014326 0.013722 0.049288 -0.037320 -0.044539 
fingen -0.011011 -0.027122 -0.034287 0.027419 0.042442 0.049837 0.045625 0.011352 0.033519 0.007081 
zeichen 0.009420 -0.011088 0.024138 0.027653 0.008043 0.010458 -0.029960 0.012421 0.006565 0.033447 
insgesamt 0.047821 0.048844 0.015232 -0.004929 0.008015 -0.039292 -0.007464 0.035197 -0.034204 0.034372 
ihre -0.035504 0.014352 -0.010252 -0.008888 0.048908 0.011110 -0.045055 -0.039921 -0.017636 0.035137 
machen 0.016728 0.019879 0.008631 0.011377 0.007660 -0.037418 0.008574 -0.042509 0.006158 0.006235 
bellte -0.016436 0.039357 0.005842 0.015754 -0.043442 0.045440 0.009162 0.022505 -0.027744 -0.012422 
miaute 0.002726 -0.016373 -0.002213 0.027031 -0.024688 0.041124 0.037320 -0.036138 -0.025724 -0.031124 
krähte 0.001224 0.034625 0.010724 0.034620 -0.013970 -0.045381 0.039697 -0.009519 -0.025283 0.033493 
dann 0.031882 0.028351 0.041735 -0.020972 -0.025904 0.011850 0.031082 0.029546 -0.033686 0.013520 
stürzten -0.048912 -0.007926 0.011053 0.029930 -0.028374 0.020121 0.033250 0.030496 0.030315 0.017128 
stube -0.022688 -0.043697 -0.024469 -0.032643 0.028864 -0.045226 -0.042634 -0.031878 0.014753 0.024269 
scheiben 0.013142 -0.002037 -0.046600 -0.037616 0.046114 0.011416 0.032110 -0.017518 0.018474 -0.002975 
klirrten 0.004334 -0.002295 0.011759 0.029239 -0.023846 -0.026137 -0.039940 0.009988 0.016015 -0.029198 
fuhren 0.042072 -0.006360 -0.016938 0.050357 -0.040376 0.029474 -0.032694 0.035963 0.028321 -0.038215 
entsetzlichen -0.023604 -0.001547 -0.047722 -0.041057 -0.047965 -0.032937 -0.006868 -0.040458 0.030561 0.022522 
geschrei 0.047000 0.023196 -0.033159 -0.007600 0.011504 -0.020029 -0.025770 0.006619 -0.027413 0.033337 
höhe -0.026384 0.040785 0.009116 0.035913 0.005167 -0.046008 -0.039743 -0.047614 0.024091 0.029326 
meinten 0.033127 -0.021978 -0.008974 0.014863 0.013503 -0.035852 -0.016834 -0.000092 -0.042793 0.002083 
anders 0.017872 -0.037677 0.005990 0.046432 0.000765 -0.003000 0.031058 0.037281 -0.028618 -0.021167 
gespenst -0.004769 -0.040498 0.022102 -0.006232 -0.018667 0.028742 0.015219 0.021609 -0.023884 0.017770 
käme 0.031201 -0.044172 -0.013765 0.045152 0.038744 0.016206 -0.023295 0.018064 0.017054 -0.015703 
herein -0.047671 0.044668 -0.014774 0.030586 0.034568 -0.004220 0.050488 -0.002582 0.002079 0.040849 
flohen -0.034180 -0.012035 -0.013046 -0.011146 -0.044728 -0.038576 0.009315 -0.045333 -0.040442 0.015190 
grösster 0.019895 -0.029630 -0.041793 -0.025546 -0.035414 0.000278 0.042585 0.028914 0.031272 0.046683 
furcht 0.020505 0.044176 0.007502 0.031848 0.033309 0.040006 0.009290 0.023934 -0.042411 -0.038731 
her -0.006336 0.033347 -0.008183 -0.045840 -0.001657 -0.006529 0.026073 -0.004287 -0.006734 -0.015510 
setzten 0.006846 -0.031200 -0.038717 -0.026449 0.045904 -0.024406 0.013446 0.045995 0.029644 0.018277 
nahmen 0.024732 -0.038451 -0.016738 -0.040371 -0.040490 -0.002394 -0.026912 -0.000029 0.041548 -0.018549 
vorlieb 0.048656 -0.032556 0.019061 0.036931 0.008657 -0.023905 -0.025018 -0.011677 0.002432 0.021707 
übriggeblieben 0.018355 -0.018830 0.006493 -0.044799 -0.038093 0.031780 -0.006418 -0.038282 0.043101 -0.030169 
assen -0.022081 0.006582 0.037099 0.046183 -0.007569 -0.027504 0.000946 -0.008816 -0.020833 0.038911 
herzenslust 0.024964 -0.007104 0.003133 0.033088 -0.038133 -0.020722 -0.039274 0.039415 0.050792 0.043190 
spielleute -0.032882 0.008567 0.047454 0.036901 -0.010337 0.015295 0.024424 -0.007185 -0.039603 0.047860 
fertig -0.049575 -0.006712 -0.043976 0.001197 -0.036591 -0.029132 -0.006037 0.045490 -0.003287 -0.020346 
fortkam -0.000431 -0.013180 -0.002466 0.025010 0.016118 -0.027430 0.042609 -0.045328 -0.037608 0.043340 
löschten -0.042008 -0.011768 -0.038987 0.049830 -0.007841 -0.018281 0.028159 -0.023199 0.029938 0.011392 
suchten -0.033692 0.010013 0.049218 -0.008254 0.017360 -0.040865 -0.038107 -0.004899 -0.027176 -0.041441 
schlafstelle 0.040330 -0.007053 0.004952 -0.028840 -0.024216 -0.013158 0.027479 -0.037207 -0.046498 -0.000949 
jeder 0.028299 -0.035121 0.019870 -0.009629 -0.002659 -0.049209 0.032787 -0.038900 0.009429 -0.045423 
seiner 0.024668 0.017020 -0.037276 -0.039110 0.006993 0.037510 -0.045294 -0.000338 -0.020682 -0.027834 
natur -0.006357 0.049540 -0.002502 -0.013794 0.028046 0.036180 0.045810 0.026999 -0.001123 -0.005526 
bequemlichkeit -0.049366 0.019807 -0.044065 -0.040312 -0.031292 -0.030165 0.031604 -0.032538 0.024821 0.032507 
legte 0.008479 -0.009726 -0.005489 -0.029607 -0.026705 0.019123 -0.032302 0.028508 -0.035906 0.045606 
mist 0.001848 0.034928 0.041798 -0.011291 -0.034562 -0.000466 0.006156 0.030797 0.024622 0.005913 
getrauten -0.043315 0.031953 -0.006049 0.032358 0.013364 -0.024234 -0.037832 0.002123 0.015792 -0.021703 
herd 0.004402 0.029338 0.035851 0.039921 0.010061 0.001942 -0.042423 -0.025560 0.020331 0.042730 
warmen -0.011027 -0.012575 0.049718 0.046584 -0.001442 0.044717 0.003943 0.014159 0.004474 -0.029186 
asche -0.028417 -0.049039 0.004930 0.031707 -0.040284 -0.039235 -0.023231 -0.029678 -0.000924 -0.035784 
hahnenbalken -0.011423 -0.002022 -0.037572 -0.008316 -0.046898 -0.021871 -0.035384 0.007401 -0.026614 -0.028047 
jahre 0.012617 0.013834 0.034999 0.031315 -0.015725 0.006111 0.008442 -0.015456 0.001147 0.011895 
ihrem 0.015905 0.014650 -0.030974 0.022496 0.028497 -0.030091 0.047832 -0.049609 -0.000161 0.038985 
bremer 0.020932 0.014490 0.016435 -0.004148 0.041702 -0.038630 0.014015 0.024996 -0.006443 0.027085 
schliefen 0.003866 0.029903 0.015627 -0.008490 -0.008684 0.040188 -0.042057 0.011275 0.005675 0.011780 
mitternacht -0.021971 -0.012264 0.047319 0.009271 0.043129 0.035016 0.041582 0.001579 -0.018733 -0.017226 
weitem 0.031593 -0.014233 -0.004238 0.010336 -0.023408 0.011052 -0.035555 0.040895 -0.041973 -0.009458 
im -0.012809 -0.011050 -0.034065 0.016752 -0.025454 -0.049311 0.026217 0.021565 -0.041222 0.036583 
brannte 0.018610 -0.016569 -0.036081 0.048743 -0.009292 0.032782 0.036931 0.036004 -0.012339 -0.042455 
musikanten -0.018983 0.019359 -0.021667 0.023910 0.030003 -0.027527 0.000975 0.013143 0.011279 -0.040904 
ruhig -0.049065 -0.035510 0.047296 -0.049580 -0.035806 -0.048037 -0.008607 -0.002555 -0.034775 0.023726 
schien -0.039620 -0.020847 0.009796 0.012546 0.008676 0.035363 0.045616 -0.037156 0.032496 -0.035538 
gefiels 0.002096 0.016686 0.035221 -0.036982 0.009278 0.039032 -0.036400 0.022892 -0.044834 0.007529 
hätten 0.027588 0.035437 -0.043711 0.039610 0.031185 0.014239 0.027960 -0.048334 -0.029394 0.044342 
sollen -0.027931 -0.018530 0.042562 0.017783 0.018046 0.014205 0.029883 -0.048553 -0.017129 -0.045763 
schon -0.044548 -0.035455 0.045250 -0.017744 0.001500 -0.049792 0.045352 -0.031622 0.017281 -0.042330 
bockshorn -0.042937 0.010225 -0.003333 -0.026317 0.032327 0.036590 -0.034932 -0.039912 0.039072 -0.015526 
jagen -0.033973 -0.049441 -0.021777 -0.004854 0.015887 -0.026426 0.005431 0.002640 -0.013457 -0.045511 
hiess 0.022376 0.042083 -0.003975 0.018074 0.005134 -0.040580 -0.023720 -0.027008 0.025898 0.004350 
untersuchen -0.020298 -0.011805 -0.006918 -0.024117 -0.011654 -0.025130 0.041074 -0.016127 -0.038985 0.011153 
abgeschickte -0.044940 0.001653 0.036614 -0.035401 0.025476 0.036128 0.026929 -0.041409 -0.016317 0.043343 
still -0.002220 -0.015554 -0.030137 0.020385 -0.030555 -0.005069 -0.008814 0.043866 -0.042091 -0.040011 
küche -0.004284 -0.023587 -0.011523 0.009878 -0.037222 0.001863 -0.040668 -0.044839 -0.020972 0.042454 
anzünden 0.001999 -0.020900 0.025920 0.019097 0.005962 0.009490 -0.004510 -0.001222 0.020310 0.030299 
glühenden -0.005351 0.033365 0.031422 -0.042629 0.007230 -0.001426 -0.007430 -0.031487 0.044582 0.042571 
feurigen -0.034969 -0.037561 0.017274 0.037965 0.020177 0.025409 0.023342 -0.001625 -0.013496 -0.009673 
augen -0.021406 0.013462 0.022159 -0.029704 0.010756 -0.049451 0.014811 -0.014244 -0.035113 0.021542 
lebendige 0.033368 -0.045130 0.018336 -0.028326 -0.023602 -0.023950 0.029161 0.008668 -0.041649 -0.043949 
kohlen 0.019564 -0.004195 -0.018601 0.023260 0.027010 -0.033365 0.016482 -0.015827 0.011533 -0.043934 
ansah 0.007778 -0.012318 -0.033152 0.028562 -0.038253 0.036985 0.012125 -0.000359 0.042957 -0.003055 
schwefelhölzchen 0.018116 -0.034413 0.018804 0.045821 -0.011670 0.005357 -0.020444 -0.033029 -0.022184 -0.046165 
feuer -0.016883 0.025586 0.042094 0.021546 -0.044882 0.032579 0.005007 -0.020715 -0.041192 -0.001119 
fangen -0.044252 0.016597 -0.033424 0.024048 -0.037677 0.047546 0.048511 0.048037 -0.015477 -0.013224 
sollte 0.048688 -0.048847 -0.049618 -0.030477 -0.045275 0.000650 0.018437 -0.046707 -0.020164 0.043532 
verstand 0.004239 0.029488 -0.032369 -0.028455 -0.033520 0.019017 -0.026315 -0.003056 -0.001972 0.047473 
keinen -0.049834 0.006091 -0.032185 -0.047954 0.029398 0.011931 0.024933 0.035847 -0.042824 -0.018033 
spass 0.035619 -0.021135 -0.030195 0.033916 -0.015435 0.018960 -0.049104 -0.027572 -0.043830 0.012336 
darin -0.047064 -0.008444 0.016827 0.026083 -0.021989 -0.047369 0.009739 0.003503 0.047822 0.029185 
spie -0.012245 -0.017939 0.017445 -0.028138 0.034186 -0.022885 -0.012999 -0.017931 0.043263 0.013667 
kratzte -0.001035 0.001459 0.001748 -0.007980 -0.027681 -0.031844 0.032491 0.035255 0.019096 0.002258 
erschrak 0.007617 0.021916 -0.017660 -0.022930 -0.036996 -0.007910 -0.031459 0.026173 0.046904 0.047416 
gewaltig 0.023896 0.034204 -0.003303 0.017685 0.000814 0.049395 -0.029094 -0.015010 0.019327 0.015742 
hintertüre 0.017933 -0.026810 -0.017918 0.033585 -0.023747 -0.026568 0.016484 0.026520 0.023739 -0.027298 
lag 0.003627 -0.003499 -0.040636 -0.044951 -0.020076 -0.036235 0.040085 0.018808 -0.027013 0.009560 
biss -0.046441 -0.012664 0.037044 0.012281 -0.021547 -0.007850 0.011458 0.004106 0.000357 -0.030860 
über -0.037749 -0.044996 -0.005488 0.013369 -0.038972 -0.030799 -0.019419 0.006241 -0.007454 0.037768 
miste 0.047336 -0.042615 -0.035223 -0.004227 0.001069 -0.039776 0.021972 -0.010848 0.028352 -0.028226 
brot -0.030943 -0.029255 0.015875 -0.039172 -0.035201 -0.015380 -0.017858 -0.018456 0.007526 0.000175 
verdienen -0.014653 0.006960 0.044856 0.022035 0.047573 -0.006744 0.026511 0.048542 0.032883 -0.036349 
weisst 0.011861 0.033393 0.038739 -0.048642 0.031779 0.017842 -0.003930 -0.007172 0.011663 0.005068 
womit 0.010943 -0.006877 0.016407 -0.008956 0.040379 -0.003522 -0.037315 -0.024658 -0.024076 0.027373 
gehe -0.037937 0.034990 -0.028768 0.002835 0.018646 -0.018466 -0.036439 0.002665 -0.016147 -0.008881 
vorbeikam 0.005286 -0.020696 -0.032965 -0.039774 -0.019148 0.013256 -0.029159 0.006820 0.000862 -0.026923 
genommen 0.045565 -0.031853 -0.048216 0.014090 -0.027764 -0.011250 0.031992 0.021583 -0.010293 0.013224 
lass -0.014529 -0.012831 -0.032532 -0.007799 0.016831 0.027869 0.035017 -0.023948 -0.028248 -0.025513 
gab 0.033810 0.043411 -0.039092 -0.047220 -0.033696 -0.002571 -0.022299 -0.022293 -0.029019 -0.039548 
reissaus 0.047819 0.008895 -0.014163 -0.026038 -0.030864 -0.008285 0.028397 0.013044 -0.017387 0.012454 
tüchtigen -0.024099 -0.013096 0.006113 -0.017010 0.019900 0.014328 0.037123 -0.030838 0.022131 -0.000513 
annehmen -0.025460 -0.003925 0.046316 0.011742 -0.039534 0.006912 0.016711 -0.002179 -0.047119 -0.027579 
spiele -0.008323 0.012284 -0.024713 -0.013432 -0.042273 -0.042574 0.027355 0.043664 -0.040934 0.036021 
laute 0.030281 0.044502 -0.047155 0.003398 -0.046767 -0.006474 0.023720 -0.032769 -0.034245 -0.008171 
schlägst 0.039812 -0.009855 -0.045633 0.026857 -0.036314 -0.002034 -0.026001 0.040662 0.021956 0.045674 
pauken -0.025498 -0.045030 0.039561 -0.041920 -0.030603 0.011424 0.028558 0.032353 -0.002499 0.003561 
wars 0.025352 -0.006111 0.039950 0.026024 -0.025786 0.013364 0.007736 0.041361 -0.005658 -0.041283 
zufrieden 0.018900 0.009379 0.042708 -0.045246 0.035330 -0.000423 0.028123 0.021534 -0.042001 0.018965 
totschlagen -0.004525 0.026061 0.004681 -0.032519 0.034857 0.047407 0.041229 0.010320 0.037931 0.002198 
schlag -0.023638 0.036417 -0.032742 -0.002967 -0.020921 -0.026860 0.048262 0.008037 -0.002561 0.029766 
dauerte 0.015856 -0.036593 0.000435 0.032866 -0.013394 -0.033895 0.048197 -0.019170 -0.048302 -0.020778 
hinterfuss -0.038343 -0.039542 0.031442 -0.016155 -0.002132 0.001481 0.041223 -0.035735 0.002686 0.036388 
jagd -0.029832 0.016927 0.044648 -0.013563 -0.029009 -0.005967 0.031255 0.006658 0.040832 -0.025664 
schwächer -0.039126 0.033993 0.010352 0.034738 0.017894 0.049574 0.019556 -0.008891 0.028793 0.009559 
jeden 0.004213 0.008702 0.007002 0.027727 0.020356 0.050918 0.036170 -0.025682 -0.012554 -0.020555 
macht -0.049501 0.015964 -0.001651 -0.022780 -0.045578 -0.006188 -0.007643 0.045968 -0.031148 -0.010166 
bin -0.032787 0.048996 0.026587 0.030281 0.026883 0.032735 0.040515 0.037191 0.002410 -0.036384 
wieder 0.009936 -0.048108 -0.016769 0.020333 -0.027230 0.016981 -0.046771 -0.019896 -0.022728 -0.018559 
tage -0.007624 0.042024 -0.029863 0.039948 -0.048654 0.005326 0.013783 0.015751 0.005859 -0.027647 
regenwetter -0.042650 -0.030364 0.003918 0.037361 0.037915 -0.028538 0.000423 -0.013951 0.012478 -0.000376 
alt 0.018177 0.047477 -0.010424 -0.010021 -0.025707 -0.018287 0.032334 0.027425 0.001615 0.039850 
dir -0.012912 0.001407 0.035379 -0.030578 0.022358 0.029622 -0.021596 0.050179 0.043666 -0.033021 
packan 0.033691 -0.021317 0.047000 0.004281 -0.030801 0.044515 0.005817 0.032047 0.020472 -0.032930 
quere -0.038080 0.020671 -0.047252 0.002951 -0.043234 -0.029544 0.001601 0.011098 -0.035627 0.046976 
gekommen 0.045985 0.007209 -0.016229 -0.014846 0.038368 -0.045663 0.029855 0.051596 0.004720 0.046032 
alter -0.047659 0.032201 -0.001916 0.021504 0.014572 -0.034796 -0.049109 0.030447 0.009780 0.001249 
bartputzer -0.042844 0.032863 0.040629 0.046528 -0.044225 -0.019845 0.002449 -0.029194 -0.004921 0.021628 
wer -0.001742 0.016911 0.037885 -0.027260 0.007680 0.023991 -0.020883 0.020036 0.042072 -0.035434 
lustig 0.026362 0.024140 -0.021479 -0.036372 0.044364 -0.015508 0.012912 0.036119 -0.023935 0.047422 
jappst 0.042792 0.014747 0.024174 -0.026968 0.043938 -0.000121 0.030585 0.025154 -0.014484 0.021488 
wenns -0.025133 -0.014599 0.036756 0.030091 0.039999 0.049837 -0.042615 -0.000832 0.021084 0.038758 
gelaufen -0.014804 0.003805 -0.006786 0.031731 -0.013288 0.027300 0.030285 -0.025287 -0.045362 -0.020187 
kragen 0.026473 0.018173 0.024996 -0.010309 -0.016188 -0.003306 -0.008832 0.030464 -0.024629 0.005395 
geht -0.000617 -0.016406 -0.005428 0.036355 0.005270 -0.045312 0.004254 0.047891 0.010062 -0.040197 
lärmen 0.024925 0.036919 0.002630 0.010237 -0.032442 0.015959 0.016689 0.009750 0.021327 0.040192 
komme 0.017895 -0.005010 0.000977 -0.047226 0.045182 0.015209 -0.001588 -0.036054 0.036272 0.002741 
