1322102 100
</s> -0.005000 0.000808 0.003638 0.000410 0.002124 0.002015 -0.001825 -0.001108 -0.003076 -0.002051 -0.003326 0.003929 -0.000806 0.003996 0.000558 0.001504 -0.002367 -0.004384 0.004541 -0.001188 -0.001521 -0.002627 -0.001900 -0.003926 0.004988 0.004678 -0.000625 -0.001125 -0.001720 -0.002907 -0.001105 -0.002566 -0.001682 -0.003826 0.003365 0.000719 0.000427 -0.002245 0.000239 0.003753 -0.003598 -0.001319 -0.002657 0.002487 -0.002148 -0.000108 0.003750 0.003140 -0.004854 0.001021 0.003136 -0.000727 -0.000930 0.002497 0.000129 -0.000833 0.003359 -0.002031 0.000257 0.004480 0.002578 0.002904 -0.003115 0.002615 -0.002702 0.002781 -0.000260 0.002021 0.004434 -0.002856 0.002546 -0.001622 0.003379 0.000856 0.004776 0.000801 -0.002553 0.003271 0.001095 0.000256 0.001501 -0.003229 0.000509 0.002041 -0.003327 0.000995 0.001510 0.000214 0.004295 0.004984 0.003664 -0.000588 -0.000008 -0.000228 -0.001355 -0.002556 -0.001701 -0.001783 0.003271 -0.000521 
computer 0.022 0.07 0.08 0.019 0.015 0.010 0.06 0.017 0.020 0.019
book 0.02 0.07 0.011 0.08 0.09 0.04 0.07 0.02 0.09 0.08
apple 0.011 0.08 0.019 0.017 0.013 0.016 0.017 0.011 0.08 0.020
human 0.09 0.08 0.03 0.05 0.01 0.05 0.02 0.04 0.07 0.01
tree 0.07 0.04 0.05 0.011 0.08 0.02 0.011 0.08 0.015 0.013
boyish 0.011 0.013 0.07 0.08 0.010 0.04 0.011 0.07 0.012 0.08
code 0.08 0.06 0.01 0.00 0.03 0.06 0.02 0.07 0.08 0.04
